%YAML:1.0
---
opencv_ml_svm:
   format: 3
   svmType: C_SVC
   kernel:
      type: LINEAR
   C: 2.6699999999999999e+00
   term_criteria: { epsilon:1.1920928955078125e-07, iterations:1000 }
   var_count: 64
   class_count: 62
   class_labels: !!opencv-matrix
      rows: 62
      cols: 1
      dt: i
      data: [ 48, 49, 50, 51, 52, 53, 54, 55, 56, 57, 65, 66, 67, 68, 69,
          70, 71, 72, 73, 74, 75, 76, 77, 78, 79, 80, 81, 82, 83, 84, 85,
          86, 87, 88, 89, 90, 97, 98, 99, 100, 101, 102, 103, 104, 105,
          106, 107, 108, 109, 110, 111, 112, 113, 114, 115, 116, 117,
          118, 119, 120, 121, 122 ]
   sv_total: 1891
   support_vectors:
      - [ 0., 0., 0., 0., 0., 0., 0., 0., 0., 0., 0., 0., 0., 0., 0., 0.,
          0., 0., 0., 0., 0., 0., 0., 0., 0., 0., 0., 0., 0., 0., 0., 0.,
          0., 0., 0., 0., 0., 0., 0., 0., 0., 0., 0., 0., 0., 0., 0., 0.,
          -9.99883650e-06, 1.77697038e-05, 1.87918104e-05,
          -2.80083327e-06, -1.84043456e-05, 1.25700553e-05,
          7.85631892e-06, 1.35582286e-05, 2.07058529e-05,
          -4.31655053e-06, -8.53255824e-06, -6.06989806e-06,
          1.88475515e-05, 1.23864411e-05, -2.24185627e-07,
          1.72585187e-05 ]
      - [ 0., 0., 0., 0., 0., 0., 0., 0., 0., 0., 0., 0., 0., 0., 0., 0.,
          0., 0., 0., 0., 0., 0., 0., 0., 0., 0., 0., 0., 0., 0., 0., 0.,
          0., 0., 0., 0., 0., 0., 0., 0., 0., 0., 0., 0., 0., 0., 0., 0.,
          6.11141195e-06, 3.67476036e-06, -3.55231805e-06,
          4.54756810e-06, -1.80837214e-05, 3.72909926e-06,
          5.31659498e-06, 8.00628698e-07, 2.33885635e-06,
          -7.86431610e-06, 6.32223146e-06, -4.94788139e-07,
          -1.21653002e-05, 1.46178786e-06, 2.14546708e-06,
          -2.41584576e-06 ]
      - [ 0., 0., 0., 0., 0., 0., 0., 0., 0., 0., 0., 0., 0., 0., 0., 0.,
          0., 0., 0., 0., 0., 0., 0., 0., 0., 0., 0., 0., 0., 0., 0., 0.,
          0., 0., 0., 0., 0., 0., 0., 0., 0., 0., 0., 0., 0., 0., 0., 0.,
          8.49447242e-05, 1.12561675e-05, 1.11590007e-05, 3.30332077e-05,
          -9.96628951e-05, -7.45357420e-06, 3.59741061e-05,
          3.51010094e-05, -2.73098285e-05, -2.61185887e-05,
          3.91413996e-05, -8.18700719e-05, -7.94131411e-05,
          1.25418437e-05, 8.18922854e-05, -8.93510078e-05 ]
      - [ 0., 0., 0., 0., 0., 0., 0., 0., 0., 0., 0., 0., 0., 0., 0., 0.,
          0., 0., 0., 0., 0., 0., 0., 0., 0., 0., 0., 0., 0., 0., 0., 0.,
          0., 0., 0., 0., 0., 0., 0., 0., 0., 0., 0., 0., 0., 0., 0., 0.,
          9.67300639e-06, 2.78785283e-05, 2.98336654e-05, 2.79905616e-05,
          -4.79626251e-05, 2.56086005e-05, 2.16862700e-05,
          3.30497933e-05, 1.91705622e-05, -1.28097236e-05,
          6.01393322e-06, 1.34293387e-05, 2.91558281e-05, 1.25379856e-05,
          -4.38645020e-06, 2.24046762e-05 ]
      - [ 0., 0., 0., 0., 0., 0., 0., 0., 0., 0., 0., 0., 0., 0., 0., 0.,
          0., 0., 0., 0., 0., 0., 0., 0., 0., 0., 0., 0., 0., 0., 0., 0.,
          0., 0., 0., 0., 0., 0., 0., 0., 0., 0., 0., 0., 0., 0., 0., 0.,
          2.16076860e-05, -7.76632623e-06, -7.15193164e-06,
          -9.59504541e-06, -1.50494370e-05, -2.12964869e-06,
          1.09710090e-05, 1.77793788e-06, -1.03841849e-05,
          5.75312242e-06, 1.48465351e-05, -1.09409721e-05,
          -3.10387331e-05, -7.35440699e-06, -2.16631975e-06,
          7.97027315e-06 ]
      - [ 0., 0., 0., 0., 0., 0., 0., 0., 0., 0., 0., 0., 0., 0., 0., 0.,
          0., 0., 0., 0., 0., 0., 0., 0., 0., 0., 0., 0., 0., 0., 0., 0.,
          0., 0., 0., 0., 0., 0., 0., 0., 0., 0., 0., 0., 0., 0., 0., 0.,
          1.72545770e-05, -1.12375510e-05, -3.82641201e-06,
          -2.61066216e-05, 3.50256269e-05, 5.17560256e-05,
          -9.56674967e-07, -3.22622582e-05, -1.36870576e-05,
          9.92914829e-06, 1.11788559e-05, -1.92485932e-05,
          -5.11259132e-05, 5.28100463e-06, -1.77634811e-05,
          2.39914698e-05 ]
      - [ 0., 0., 0., 0., 0., 0., 0., 0., 0., 0., 0., 0., 0., 0., 0., 0.,
          0., 0., 0., 0., 0., 0., 0., 0., 0., 0., 0., 0., 0., 0., 0., 0.,
          0., 0., 0., 0., 0., 0., 0., 0., 0., 0., 0., 0., 0., 0., 0., 0.,
          5.70180373e-06, 9.62769718e-06, 1.74398119e-05, 8.30522549e-06,
          -5.58196234e-06, 9.88778993e-06, 1.24746048e-05,
          1.03155280e-05, 1.71309366e-05, 7.95232665e-07, 1.85767822e-05,
          9.33283900e-06, -1.12945372e-05, 1.25751376e-05,
          1.41765822e-05, 1.16490228e-05 ]
      - [ 0., 0., 0., 0., 0., 0., 0., 0., 0., 0., 0., 0., 0., 0., 0., 0.,
          0., 0., 0., 0., 0., 0., 0., 0., 0., 0., 0., 0., 0., 0., 0., 0.,
          0., 0., 0., 0., 0., 0., 0., 0., 0., 0., 0., 0., 0., 0., 0., 0.,
          5.67684538e-06, 2.52635546e-05, -4.30933251e-05,
          1.61661756e-05, 2.86047361e-05, -2.35355710e-05,
          -1.07760025e-05, 3.04259174e-05, 1.05387846e-06,
          -1.22993151e-05, 7.47982313e-07, 7.82151619e-06,
          -2.25889489e-05, 6.29947272e-06, -1.05827958e-05,
          1.04640230e-05 ]
      - [ 0., 0., 0., 0., 0., 0., 0., 0., 0., 0., 0., 0., 0., 0., 0., 0.,
          0., 0., 0., 0., 0., 0., 0., 0., 0., 0., 0., 0., 0., 0., 0., 0.,
          0., 0., 0., 0., 0., 0., 0., 0., 0., 0., 0., 0., 0., 0., 0., 0.,
          -8.51455070e-07, 1.86170964e-05, 1.88286540e-05,
          -9.41141207e-06, -3.95702482e-05, 2.36930555e-06,
          -1.30974022e-05, 1.87243058e-05, 4.81241159e-06,
          -1.57954837e-05, -6.72773967e-06, -2.38526227e-05,
          1.46861839e-05, 3.82097242e-05, 1.76901631e-05,
          -3.19081664e-05 ]
      - [ 0., 0., 0., 0., 0., 0., 0., 0., 0., 0., 0., 0., 0., 0., 0., 0.,
          0., 0., 0., 0., 0., 0., 0., 0., 0., 0., 0., 0., 0., 0., 0., 0.,
          0., 0., 0., 0., 0., 0., 0., 0., 0., 0., 0., 0., 0., 0., 0., 0.,
          4.04024291e-07, 6.35905144e-06, 1.24996777e-05, 1.81634903e-06,
          -1.03690581e-05, 3.69397981e-06, 6.66211281e-06,
          -1.17868785e-06, 7.08338075e-06, -1.10755709e-05,
          1.29468199e-05, 3.72347222e-06, -1.74648528e-06,
          5.06503739e-06, 6.10524921e-06, -8.75584101e-06 ]
      - [ 0., 0., 0., 0., 0., 0., 0., 0., 0., 0., 0., 0., 0., 0., 0., 0.,
          0., 0., 0., 0., 0., 0., 0., 0., 0., 0., 0., 0., 0., 0., 0., 0.,
          0., 0., 0., 0., 0., 0., 0., 0., 0., 0., 0., 0., 0., 0., 0., 0.,
          2.68607782e-05, 1.02450213e-05, -1.72889904e-05,
          -2.52056520e-06, -1.71590800e-05, 2.81056418e-06,
          1.73119806e-05, 8.23961454e-06, -1.73098197e-05,
          -8.81643609e-06, 1.31582519e-05, 1.64510147e-05,
          -3.00035481e-05, -1.16249748e-05, -1.39806516e-05,
          -3.46736419e-06 ]
      - [ 0., 0., 0., 0., 0., 0., 0., 0., 0., 0., 0., 0., 0., 0., 0., 0.,
          0., 0., 0., 0., 0., 0., 0., 0., 0., 0., 0., 0., 0., 0., 0., 0.,
          0., 0., 0., 0., 0., 0., 0., 0., 0., 0., 0., 0., 0., 0., 0., 0.,
          -2.68335534e-05, -3.03052020e-05, 6.26779438e-05,
          -5.02906005e-05, 2.93102967e-05, 4.47158200e-05,
          1.16460624e-05, -2.41528433e-05, 6.96839779e-05,
          3.15958387e-05, 6.55235408e-06, -6.10769348e-05,
          -1.22290032e-04, 7.49213941e-05, 3.09942152e-05,
          -2.94812526e-06 ]
      - [ 0., 0., 0., 0., 0., 0., 0., 0., 0., 0., 0., 0., 0., 0., 0., 0.,
          0., 0., 0., 0., 0., 0., 0., 0., 0., 0., 0., 0., 0., 0., 0., 0.,
          0., 0., 0., 0., 0., 0., 0., 0., 0., 0., 0., 0., 0., 0., 0., 0.,
          5.96181490e-05, 6.08622395e-05, -3.50574155e-05,
          -3.89009110e-05, -3.85540006e-05, 9.66426305e-05,
          6.81931706e-05, -1.45147096e-05, -5.41999361e-05,
          -5.78038271e-05, 4.90354032e-05, -4.69624865e-07,
          1.27720150e-05, -6.49991634e-05, -7.24788406e-05,
          1.74838788e-05 ]
      - [ 0., 0., 0., 0., 0., 0., 0., 0., 0., 0., 0., 0., 0., 0., 0., 0.,
          0., 0., 0., 0., 0., 0., 0., 0., 0., 0., 0., 0., 0., 0., 0., 0.,
          0., 0., 0., 0., 0., 0., 0., 0., 0., 0., 0., 0., 0., 0., 0., 0.,
          -8.22155653e-06, 5.92192600e-06, 9.60827492e-06,
          2.42449551e-06, -1.72109685e-05, 1.94020026e-06,
          2.56618728e-06, -4.00298313e-06, 2.01036055e-05,
          -5.57758585e-06, -1.67311555e-07, -2.52686590e-07,
          -1.56917213e-05, 9.40538303e-06, 9.14506109e-06,
          -9.05375828e-07 ]
      - [ 0., 0., 0., 0., 0., 0., 0., 0., 0., 0., 0., 0., 0., 0., 0., 0.,
          0., 0., 0., 0., 0., 0., 0., 0., 0., 0., 0., 0., 0., 0., 0., 0.,
          0., 0., 0., 0., 0., 0., 0., 0., 0., 0., 0., 0., 0., 0., 0., 0.,
          -4.56221369e-06, 9.36292963e-06, 1.86884954e-05,
          1.22156780e-06, -7.24372512e-06, 1.05736872e-05,
          6.87349313e-07, -2.34440517e-06, 2.27750279e-05,
          -1.57491218e-06, 1.03796683e-05, 6.63214860e-06,
          -1.70145013e-05, 1.63046770e-05, 1.82408676e-05,
          -3.65500182e-06 ]
      - [ 0., 0., 0., 0., 0., 0., 0., 0., 0., 0., 0., 0., 0., 0., 0., 0.,
          0., 0., 0., 0., 0., 0., 0., 0., 0., 0., 0., 0., 0., 0., 0., 0.,
          0., 0., 0., 0., 0., 0., 0., 0., 0., 0., 0., 0., 0., 0., 0., 0.,
          -1.14481581e-05, 5.22741993e-06, -1.35012010e-06,
          -5.30674743e-06, -1.76442336e-05, -7.09055200e-07,
          -1.26286977e-05, 6.19079913e-07, 2.52885420e-05,
          -4.13003363e-06, -1.09738801e-06, -1.05749018e-06,
          -4.68976905e-05, 1.30230537e-05, 1.56836959e-05,
          -4.47985741e-07 ]
      - [ 0., 0., 0., 0., 0., 0., 0., 0., 0., 0., 0., 0., 0., 0., 0., 0.,
          0., 0., 0., 0., 0., 0., 0., 0., 0., 0., 0., 0., 0., 0., 0., 0.,
          0., 0., 0., 0., 0., 0., 0., 0., 0., 0., 0., 0., 0., 0., 0., 0.,
          -1.07574915e-05, 2.89097279e-05, -2.91122305e-05,
          -2.67818323e-05, -1.36546523e-05, 4.52486893e-05,
          -5.31915475e-06, -3.10873901e-07, 8.11751124e-06,
          -2.24532814e-05, 6.83023827e-05, -5.90907148e-05,
          -8.79654920e-07, -2.04283006e-05, 5.31124715e-06,
          6.38740994e-06 ]
      - [ 0., 0., 0., 0., 0., 0., 0., 0., 0., 0., 0., 0., 0., 0., 0., 0.,
          0., 0., 0., 0., 0., 0., 0., 0., 0., 0., 0., 0., 0., 0., 0., 0.,
          0., 0., 0., 0., 0., 0., 0., 0., 0., 0., 0., 0., 0., 0., 0., 0.,
          2.05927954e-05, -6.13335760e-06, 4.45468977e-05,
          4.73368564e-05, -3.09093411e-05, 3.46183078e-05,
          4.94937740e-06, 2.73356454e-05, 1.63097211e-05, 2.65669241e-05,
          -1.12156922e-05, 4.07190382e-05, -9.45867214e-06,
          5.10230893e-05, -3.20266845e-05, 2.86295090e-05 ]
      - [ 0., 0., 0., 0., 0., 0., 0., 0., 0., 0., 0., 0., 0., 0., 0., 0.,
          0., 0., 0., 0., 0., 0., 0., 0., 0., 0., 0., 0., 0., 0., 0., 0.,
          0., 0., 0., 0., 0., 0., 0., 0., 0., 0., 0., 0., 0., 0., 0., 0.,
          -2.27811215e-05, -3.31746523e-05, 3.11212398e-06,
          -4.61270747e-06, 8.63333407e-05, -3.78152145e-05,
          -2.86000850e-05, 2.36394626e-05, 2.61669447e-05,
          4.80680574e-05, 4.38141842e-06, -3.08409944e-05,
          -6.44011379e-05, -7.08560838e-05, 8.10939964e-05,
          5.51662015e-05 ]
      - [ 0., 0., 0., 0., 0., 0., 0., 0., 0., 0., 0., 0., 0., 0., 0., 0.,
          0., 0., 0., 0., 0., 0., -4.10942022e-07, -9.18894273e-07,
          -1.51284996e-06, -3.45092133e-07, 0., 0., 0., 0., 0., 0., 0.,
          0., 0., 0., 0., 0., 0., 0., 0., 0., 0., 0., 0., 0., 0., 0.,
          3.97411532e-05, 3.87468981e-06, -2.32839757e-05,
          7.01393265e-06, -3.29830764e-05, 5.44284703e-05,
          7.76081470e-06, 4.04956108e-06, -2.25744661e-05,
          -1.73488042e-05, 3.17149279e-05, 1.60856107e-05,
          -1.44003898e-05, 4.69975093e-05, -3.13828568e-05,
          -1.65960737e-05 ]
      - [ 0., 0., 0., 0., 0., 0., 0., 0., 0., 0., 0., 0., 0., 0., 0., 0.,
          0., 0., 0., 0., 0., 0., 0., 0., 0., 0., 0., 0., 0., 0., 0., 0.,
          0., 0., 0., 0., 0., 0., 0., 0., 0., 0., 0., 0., 0., 0., 0., 0.,
          2.61587456e-06, 9.06678270e-06, 1.95300454e-05, 1.03271504e-05,
          -2.00620088e-05, 1.05368899e-05, 9.57240445e-06,
          1.01376481e-05, 1.87106634e-05, 2.95752966e-06, 7.12335213e-06,
          2.48371566e-06, -1.55236000e-06, 1.45101421e-05,
          1.22450529e-05, 1.03632428e-05 ]
      - [ 0., 0., 0., 0., 0., 0., 0., 0., 0., 0., 0., 0., 0., 0., 0., 0.,
          0., 0., 0., 0., 0., 0., 0., 0., 0., 0., 0., 0., 0., 0., 0., 0.,
          0., 0., 0., 0., 0., 0., 0., 0., 0., 0., 0., 0., 0., 0., 0., 0.,
          -2.56370731e-06, -1.26922023e-05, 6.31015864e-05,
          7.70725546e-06, -3.87721302e-05, 4.38390089e-05,
          5.96767313e-06, -3.04403857e-05, -3.77754873e-06,
          -2.25247568e-05, 4.38085117e-05, 1.57759787e-05,
          -1.18788430e-05, 3.37729325e-05, -2.90114604e-05,
          -2.29197540e-05 ]
      - [ 0., 0., 0., 0., 0., 0., 0., 0., 0., 0., 0., 0., 0., 0., 0., 0.,
          0., 0., 0., 0., 0., 0., 0., 0., 0., 0., 0., 0., 0., 0., 0., 0.,
          0., 0., 0., 0., 0., 0., 0., 0., 0., 0., 0., 0., 0., 0., 0., 0.,
          -1.63009991e-05, -6.67134145e-07, 2.04150165e-05,
          -1.03791790e-05, 3.68932378e-05, 5.55246297e-05,
          -4.25072758e-05, 1.35090650e-05, 1.58979419e-05,
          -7.81879953e-06, 9.13876429e-05, -6.96291390e-05,
          -3.69889167e-05, 7.87065510e-05, 1.66564423e-05,
          -3.12305674e-05 ]
      - [ 0., 0., 0., 0., 0., 0., 0., 0., 0., 0., 0., 0., 0., 0., 0., 0.,
          0., 0., 0., 0., 0., 0., 0., 0., 0., 0., 0., 0., 0., 0., 0., 0.,
          0., 0., 0., 0., 0., 0., 0., 0., 0., 0., 0., 0., 0., 0., 0., 0.,
          2.82026326e-06, 4.01105171e-06, -1.79192762e-06,
          -2.32657584e-07, -7.40550490e-07, 5.99391433e-06,
          6.34309845e-06, -7.07257504e-06, -6.84798670e-06,
          -4.12865847e-06, 4.37787003e-06, -7.26431790e-06,
          -1.28214460e-05, 4.39746782e-06, -1.26618952e-05,
          7.68579048e-06 ]
      - [ 0., 0., 0., 0., 0., 0., 0., 0., 0., 0., 0., 0., 0., 0., 0., 0.,
          0., 0., 0., 0., 0., 0., 0., 0., 0., 0., 0., 0., 0., 0., 0., 0.,
          0., 0., 0., 0., 0., 0., 0., 0., 0., 0., 0., 0., 0., 0., 0., 0.,
          3.91633621e-05, 1.67740163e-05, 1.60364345e-06, 3.24283974e-06,
          -2.11907736e-05, 2.23718762e-05, 2.27979472e-05,
          2.46790041e-05, -1.07984770e-05, -4.87380976e-06,
          3.39932485e-05, 1.52306829e-05, -2.55170653e-05,
          -1.43332602e-06, 1.78850439e-06, 2.20230754e-06 ]
      - [ 0., 0., 0., 0., 0., 0., 0., 0., 0., 0., 0., 0., 0., 0., 0., 0.,
          0., 0., 0., 0., 0., 0., 0., 0., 0., 0., 0., 0., 0., 0., 0., 0.,
          0., 0., 0., 0., 0., 0., 0., 0., 0., 0., 0., 0., 0., 0., 0., 0.,
          -1.24416840e-06, -3.49830998e-06, 7.88510806e-06,
          9.95505161e-07, 1.51988536e-06, -1.90789015e-05,
          -1.79533879e-06, 4.36412529e-06, -1.90151547e-06,
          4.58249224e-06, -9.50418496e-07, 4.01650732e-06,
          -2.67380938e-06, 6.74653711e-06, -4.31363787e-06,
          1.22118772e-05 ]
      - [ 0., 0., 0., 0., 0., 0., 0., 0., 0., 0., 0., 0., 0., 0., 0., 0.,
          0., 0., 0., 0., 0., 0., 0., 0., 0., 0., 0., 0., 0., 0., 0., 0.,
          0., 0., 0., 0., 0., 0., 0., 0., 0., 0., 0., 0., 0., 0., 0., 0.,
          6.05103087e-05, 3.55458906e-05, -2.46725813e-05,
          -9.84254730e-05, 1.67298040e-05, 1.18989345e-04,
          1.90413884e-05, -2.50279095e-06, -4.94865999e-05,
          -3.93817427e-05, 5.33717975e-05, -3.86936199e-06,
          -6.81998499e-05, 3.47531713e-05, -5.19918285e-05,
          -2.60530196e-05 ]
      - [ 0., 0., 0., 0., 0., 0., 0., 0., 0., 0., 0., 0., 0., 0., 0., 0.,
          0., 0., 0., 0., 0., 0., 0., 0., 0., 0., 0., 0., 0., 0., 0., 0.,
          0., 0., 0., 0., 0., 0., 0., 0., 0., 0., 0., 0., 0., 0., 0., 0.,
          5.83316523e-06, 2.71380686e-05, -2.48736092e-06,
          -3.81821228e-05, 1.86540419e-05, 9.35721346e-06,
          1.71308457e-05, 2.98440864e-06, 7.77018431e-06,
          -1.43655489e-05, 1.52856974e-05, 1.66848253e-07,
          -1.46816274e-05, -5.62919149e-06, -4.43633144e-06,
          -5.86741953e-06 ]
      - [ 0., 0., 0., 0., 0., 0., 0., 0., 0., 0., 0., 0., 0., 0., 0., 0.,
          0., 0., 0., 0., 0., 0., 0., 0., 0., 0., 0., 0., 0., 0., 0., 0.,
          0., 0., 0., 0., 0., 0., 0., 0., 0., 0., 0., 0., 0., 0., 0., 0.,
          1.56717051e-05, -3.46540742e-06, 1.68446932e-05,
          -1.73324537e-08, 3.59073078e-06, 1.03903712e-05,
          9.46657201e-06, 4.82315318e-06, 8.47594220e-06, 1.31809829e-05,
          2.19821322e-05, 9.00599753e-06, -3.17971244e-05,
          1.61097196e-05, 1.40498132e-05, 6.26712654e-06 ]
      - [ 0., 0., 0., 0., 0., 0., 0., 0., 0., 0., 0., 0., 0., 0., 0., 0.,
          0., 0., 0., 0., 0., 0., 0., 0., 0., 0., 0., 0., 0., 0., 0., 0.,
          0., 0., 0., 0., 0., 0., 0., 0., 0., 0., 0., 0., 0., 0., 0., 0.,
          -1.99291753e-05, -1.34013544e-05, -3.82715325e-06,
          -4.34426111e-05, 8.20857240e-05, -2.53153667e-05,
          -8.02948307e-06, 2.96363032e-06, 5.73513489e-06,
          1.26587820e-05, 4.14104834e-05, -2.87939984e-05,
          -4.96386092e-05, 4.58474278e-06, 2.28262652e-05,
          3.06352267e-05 ]
      - [ 0., 0., 0., 0., 0., 0., 0., 0., 0., 0., 0., 0., 0., 0., 0., 0.,
          0., 0., 0., 0., 0., 0., 0., 0., 0., 0., 0., 0., 0., 0., 0., 0.,
          0., 0., 0., 0., 0., 0., 0., 0., 0., 0., 0., 0., 0., 0., 0., 0.,
          -3.52488740e-07, -1.75854402e-05, 1.26394307e-05,
          7.93678464e-06, 4.67574500e-06, 1.59795818e-05,
          -7.43714463e-06, -1.07612141e-05, 4.96025314e-06,
          7.87922454e-06, 1.47493502e-05, 6.08922107e-07,
          -1.45855211e-05, 1.24071566e-05, 1.32835667e-05,
          -1.78029700e-06 ]
      - [ 0., 0., 0., 0., 0., 0., 0., 0., 0., 0., 0., 0., 0., 0., 0., 0.,
          0., 0., 0., 0., 0., 0., 0., 0., 0., 0., 0., 0., 0., 0., 0., 0.,
          0., 0., 0., 0., 0., 0., 0., 0., 0., 0., 0., 0., 0., 0., 0., 0.,
          -7.56734926e-06, -2.48097986e-05, 2.11907645e-05,
          8.45123031e-06, 6.12075655e-06, 1.04531837e-05, 2.15488399e-06,
          -2.07036010e-05, -7.50147722e-10, 1.00718735e-05,
          2.10383541e-06, -1.69859459e-06, -1.37029347e-05,
          1.81150499e-05, -4.36736309e-06, 3.34691038e-07 ]
      - [ 0., 0., 0., 0., 0., 0., 0., 0., 0., 0., 0., 0., 0., 0., 0., 0.,
          0., 0., 0., 0., 0., 0., 0., 0., 0., 0., 0., 0., 0., 0., 0., 0.,
          0., 0., 0., 0., 0., 0., 0., 0., 0., 0., 0., 0., 0., 0., 0., 0.,
          2.05062152e-05, -1.48318422e-05, 1.58411622e-05,
          1.56225688e-05, -1.43436428e-05, 2.67574342e-05,
          9.26393750e-06, -8.46300009e-06, 4.75698562e-06,
          5.13603436e-06, 1.25513170e-05, 2.16183216e-05,
          -1.60209001e-05, 2.59398985e-05, 9.54080133e-06,
          -4.78893480e-06 ]
      - [ 0., 0., 0., 0., 0., 0., 0., 0., 0., 0., 0., 0., 0., 0., 0., 0.,
          0., 0., 0., 0., 0., 0., 0., 0., 0., 0., 0., 0., 0., 0., 0., 0.,
          0., 0., 0., 0., 0., 0., 0., 0., 0., 0., 0., 0., 0., 0., 0., 0.,
          2.01289658e-05, -3.55279626e-05, 4.71355343e-05,
          3.28310198e-05, -4.37363560e-05, 5.92889737e-05,
          1.02249687e-05, -2.32400162e-05, 9.29811813e-06,
          2.80274508e-05, -1.78034879e-05, 8.43707221e-06,
          1.67699102e-06, 2.71862336e-05, 1.08397071e-05, 1.06491439e-06 ]
      - [ 0., 0., 0., 0., 0., 0., 0., 0., 0., 0., 0., 0., 0., 0., 0., 0.,
          0., 0., 0., 0., 0., 0., 0., 0., 0., 0., 0., 0., 0., 0., 0., 0.,
          0., 0., 0., 0., 0., 0., 0., 0., 0., 0., 0., 0., 0., 0., 0., 0.,
          1.46704260e-05, 7.32568333e-06, 1.48490626e-05, 1.51546792e-05,
          -1.22750262e-05, 1.74408633e-05, 1.71364973e-05,
          1.83001830e-05, 1.11966019e-05, 6.97733776e-06, 1.79331619e-05,
          7.91116054e-06, -4.08710093e-06, 1.44265832e-05,
          1.79155304e-05, 1.70473540e-05 ]
      - [ 0., 0., 0., 0., 0., 0., 0., 0., 0., 0., 0., 0., 0., 0., 0., 0.,
          0., 0., 0., 0., 0., 0., 0., 0., 0., 0., 0., 0., 0., 0., 0., 0.,
          0., 0., 0., 0., 0., 0., 0., 0., 0., 0., 0., 0., 0., 0., 0., 0.,
          -4.95937602e-05, -4.24839300e-06, 3.06247830e-06,
          -3.28798956e-06, -2.01293897e-05, 2.28886256e-05,
          -4.99119305e-05, -1.37024845e-05, 5.32427803e-05,
          2.96377630e-06, -1.06275666e-05, -4.54034816e-05,
          -2.22780182e-05, 5.99765190e-05, 1.68288025e-05,
          2.36836458e-05 ]
      - [ 0., 0., 0., 0., 0., 0., 0., 0., 0., 0., 0., 0., 0., 0., 0., 0.,
          0., 0., 0., 0., 0., 0., 0., 0., 0., 0., 0., 0., 0., 0., 0., 0.,
          0., 0., 0., 0., 0., 0., 0., 0., 0., 0., 0., 0., 0., 0., 0., 0.,
          3.76212665e-05, 1.14660361e-05, -3.58065772e-05,
          1.48006002e-05, 5.73841407e-06, -6.19206330e-05,
          1.08700871e-04, 3.23410641e-05, -3.91244866e-05,
          -7.67389338e-06, 5.33457824e-05, -1.07624619e-04,
          6.95349081e-06, -3.55544908e-05, 1.10657293e-05,
          -2.69209431e-05 ]
      - [ 0., 0., 0., 0., 0., 0., 0., 0., 0., 0., 0., 0., 0., 0., 0., 0.,
          0., 0., 0., 0., 0., 0., 0., 0., 0., 0., 0., 0., 0., 0., 0., 0.,
          0., 0., 0., 0., 0., 0., 0., 0., 0., 0., 0., 0., 0., 0., 0., 0.,
          -6.16920224e-05, -1.59874126e-05, 3.67777502e-05,
          -7.88427787e-05, 2.18557525e-05, 5.09046149e-05,
          -3.46993475e-05, -5.03812735e-05, 9.84480575e-05,
          1.19533242e-05, 4.79856099e-05, -6.37433259e-05,
          -9.94051661e-05, -1.46327784e-05, 1.04286431e-04,
          2.77689487e-05 ]
      - [ 0., 0., 0., 0., 0., 0., 0., 0., 0., 0., 0., 0., 0., 0., 0., 0.,
          0., 0., 0., 0., 0., 0., 0., 0., 0., 0., 0., 0., 0., 0., 0., 0.,
          0., 0., 0., 0., 0., 0., 0., 0., 0., 0., 0., 0., 0., 0., 0., 0.,
          -4.79635310e-05, -1.89237301e-06, 3.65559536e-05,
          -5.80526867e-05, -7.89472324e-06, 3.40239349e-05,
          -1.71408774e-05, -1.76725134e-05, 4.76339956e-05,
          1.07633068e-05, -2.83492172e-05, -5.65810515e-05,
          4.72504462e-06, 1.01088408e-05, 3.78119294e-05, 2.18852019e-05 ]
      - [ 0., 0., 0., 0., 0., 0., 0., 0., 0., 0., 0., 0., 0., 0., 0., 0.,
          0., 0., 0., 0., 0., 0., 0., 0., 0., 0., 0., 0., 0., 0., 0., 0.,
          0., 0., 0., 0., 0., 0., 0., 0., 0., 0., 0., 0., 0., 0., 0., 0.,
          -2.05367041e-06, 3.25649853e-05, 1.55870021e-05,
          -2.82439141e-05, -5.36546468e-05, 5.07071891e-05,
          -9.89983255e-06, 1.50597020e-06, 1.24599328e-05,
          -3.30798830e-05, -1.39863232e-05, 2.02816009e-05,
          1.32733621e-05, 2.86072082e-05, -2.38567122e-06,
          -1.88396552e-05 ]
      - [ 0., 0., 0., 0., 0., 0., 0., 0., 0., 0., 0., 0., 0., 0., 0., 0.,
          0., 0., 0., 0., 0., 0., 0., 0., 0., 0., 0., 0., 0., 0., 0., 0.,
          0., 0., 0., 0., 0., 0., 0., 0., 0., 0., 0., 0., 0., 0., 0., 0.,
          3.60057197e-06, -1.56871874e-06, 6.23592859e-05,
          4.88873809e-07, -2.37023651e-05, 4.50771313e-06,
          9.69734901e-06, 3.35311161e-05, 3.96742253e-05,
          -1.25923825e-05, 3.42677522e-05, -1.79098752e-05,
          -1.13463893e-05, 3.24346729e-05, 1.99859642e-05,
          2.48908327e-05 ]
      - [ 0., 0., 0., 0., 0., 0., 0., 0., 0., 0., 0., 0., 0., 0., 0., 0.,
          0., 0., 0., 0., 0., 0., 0., 0., 0., 0., 0., 0., 0., 0., 0., 0.,
          0., 0., 0., 0., 0., 0., 0., 0., 0., 0., 0., 0., 0., 0., 0., 0.,
          -2.66664319e-05, 1.86226425e-05, -7.00601231e-06,
          -3.09039683e-06, -1.34680977e-05, 9.58202145e-06,
          -8.21030699e-06, -1.98444759e-05, 4.02673213e-05,
          -8.40691246e-06, 5.01444447e-06, -7.59691147e-06,
          -3.86309330e-05, 3.65348046e-06, 1.54033187e-05,
          1.36225817e-05 ]
      - [ 0., 0., 0., 0., 0., 0., 0., 0., 0., 0., 0., 0., 0., 0., 0., 0.,
          0., 0., 0., 0., 0., 0., 0., 0., 0., 0., 0., 0., 0., 0., 0., 0.,
          0., 0., 0., 0., 0., 0., 0., 0., 0., 0., 0., 0., 0., 0., 0., 0.,
          -1.04237279e-05, 4.69302449e-06, 2.84130620e-05,
          1.47077471e-05, -1.35877453e-05, 1.58962703e-05,
          4.37177114e-05, 2.44868588e-05, 6.47961588e-06, 2.54166343e-06,
          -4.97077417e-05, -5.39473949e-05, 1.91374147e-05,
          1.32593586e-05, -2.04798653e-05, -8.74623856e-06 ]
      - [ 0., 0., 0., 0., 0., 0., 0., 0., 0., 0., 0., 0., 0., 0., 0., 0.,
          0., 0., 0., 0., 0., 0., 0., 0., 0., 0., 0., 0., 0., 0., 0., 0.,
          0., 0., 0., 0., 0., 0., 0., 0., 0., 0., 0., 0., 0., 0., 0., 0.,
          -1.08589911e-05, -1.91246963e-05, 2.94040710e-05,
          5.24004463e-05, -1.51332997e-05, 2.53106609e-05,
          -1.64440626e-05, 1.33994990e-05, 3.20234540e-05,
          3.50384798e-05, -1.46553612e-05, -2.25760164e-06,
          6.65579546e-06, 4.40756594e-05, -3.23534623e-05,
          6.85991690e-05 ]
      - [ 0., 0., 0., 0., 0., 0., 0., 0., 0., 0., 0., 0., 0., 0., 0., 0.,
          0., 0., 0., 0., 0., 0., 0., 0., 0., 0., 0., 0., 0., 0., 0., 0.,
          0., 0., 0., 0., 0., 0., 0., 0., 0., 0., 0., 0., 0., 0., 0., 0.,
          -3.23359309e-05, -2.46038344e-05, 2.53370508e-05,
          4.63063373e-07, 6.78596552e-05, -3.00799184e-05,
          -2.31543745e-05, 3.43269967e-05, 3.91915019e-05,
          3.34272590e-05, -1.77555885e-05, -3.73399344e-05,
          -4.71223066e-05, 4.46953709e-05, 4.23498932e-05,
          1.45773156e-05 ]
      - [ 0., 0., 0., 0., 0., 0., 0., 0., 0., 0., 0., 0., 0., 0., 0., 0.,
          0., 0., 0., 0., 0., 0., 0., 0., 0., 0., 0., 0., 0., 0., 0., 0.,
          0., 0., 0., 0., 0., 0., 0., 0., 0., 0., 0., 0., 0., 0., 0., 0.,
          2.42387359e-05, 2.15364307e-05, -3.57335011e-05,
          2.12486430e-05, -3.36302328e-05, -3.15246507e-05,
          2.05692722e-05, 3.37305646e-05, -1.71542633e-05,
          -1.92024836e-05, 2.94709880e-05, -4.27126652e-05,
          4.08942615e-05, 1.09270237e-04, -4.45391343e-05,
          -3.05971334e-05 ]
      - [ 0., 0., 0., 0., 0., 0., 0., 0., 0., 0., 0., 0., 0., 0., 0., 0.,
          0., 0., 0., 0., 0., 0., 0., 0., 0., 0., 0., 0., 0., 0., 0., 0.,
          0., 0., 0., 0., 0., 0., 0., 0., 0., 0., 0., 0., 0., 0., 0., 0.,
          -4.17289903e-06, 2.03073819e-06, 3.80806669e-05,
          4.19590833e-05, -1.61373555e-05, 1.95990851e-05,
          4.96830899e-06, 1.21382573e-05, 3.21819207e-05, 9.38508947e-06,
          -4.84221982e-06, 1.03011616e-05, -1.89327693e-06,
          4.39528012e-05, 1.14984759e-05, 4.51677488e-06 ]
      - [ 0., 0., 0., 0., 0., 0., 0., 0., 0., 0., 0., 0., 0., 0., 0., 0.,
          0., 0., 0., 0., 0., 0., 0., 0., 0., 0., 0., 0., 0., 0., 0., 0.,
          0., 0., 0., 0., 0., 0., 0., 0., 0., 0., 0., 0., 0., 0., 0., 0.,
          1.89288985e-05, 1.16447864e-05, -7.45959994e-07,
          1.33314443e-05, -7.90727518e-06, 9.07500289e-05,
          5.62391033e-05, -1.48356321e-05, -2.29257075e-05,
          -1.46476086e-05, 3.23551171e-06, -1.03595157e-04,
          4.21527602e-06, 1.00410844e-05, -8.05361997e-05,
          1.46691100e-05 ]
      - [ 0., 0., 0., 0., 0., 0., 0., 0., 0., 0., 0., 0., 0., 0., 0., 0.,
          0., 0., 0., 0., 0., 0., 0., 0., 0., 0., 0., 0., 0., 0., 0., 0.,
          0., 0., 0., 0., 0., 0., 0., 0., 0., 0., 0., 0., 0., 0., 0., 0.,
          2.76345199e-05, 1.63859240e-05, 1.21523613e-06, 3.48757421e-05,
          -4.92468789e-05, 8.42027293e-05, 4.72996871e-05,
          4.97886094e-06, -2.15578002e-05, -2.22231611e-05,
          -2.34330969e-06, -8.60604414e-05, 2.71831050e-05,
          3.01167911e-05, -6.40439903e-05, -2.02712454e-05 ]
      - [ 0., 0., 0., 0., 0., 0., 0., 0., 0., 0., 0., 0., 0., 0., 0., 0.,
          0., 0., 0., 0., 0., 0., 0., 0., 0., 0., 0., 0., 0., 0., 0., 0.,
          0., 0., 0., 0., 0., 0., 0., 0., 0., 0., 0., 0., 0., 0., 0., 0.,
          -9.77627110e-07, 1.80122004e-06, -3.03054236e-07,
          -6.20518813e-06, 5.39044595e-06, 1.22033862e-05,
          -9.90007811e-06, -4.82203768e-06, 2.45858314e-06,
          1.24138217e-06, 1.38678624e-05, -2.35999742e-05,
          -1.06712050e-05, 7.85686279e-06, 6.69824703e-06,
          1.08089944e-05 ]
      - [ 0., 0., 0., 0., 0., 0., 0., 0., 0., 0., 0., 0., 0., 0., 0., 0.,
          0., 0., 0., 0., 0., 0., 0., 0., 0., 0., 0., 0., 0., 0., 0., 0.,
          0., 0., 0., 0., 0., 0., 0., 0., 0., 0., 0., 0., 0., 0., 0., 0.,
          5.26933181e-05, 4.04549719e-05, -2.79156757e-06,
          -2.66414427e-05, -5.11781254e-05, 3.51254021e-05,
          6.81313468e-05, 2.87292914e-05, -5.20591857e-05,
          -4.08025589e-05, 2.33131159e-05, -3.05574104e-05,
          5.49733231e-05, -1.30018643e-05, -4.98401023e-05,
          -2.87540497e-05 ]
      - [ 0., 0., 0., 0., 0., 0., 0., 0., 0., 0., 0., 0., 0., 0., 0., 0.,
          0., 0., 0., 0., 0., 0., 0., 0., 0., 0., 0., 0., 0., 0., 0., 0.,
          0., 0., 0., 0., 0., 0., 0., 0., 0., 0., 0., 0., 0., 0., 0., 0.,
          -5.98540501e-05, -2.14390802e-05, 4.17887313e-05,
          1.81305204e-05, -1.64673511e-05, -8.31963916e-06,
          -4.41030534e-05, -7.94516745e-06, 6.06890062e-05,
          2.30498572e-05, -3.03098186e-05, -2.28708941e-05,
          9.41295912e-06, -2.71021399e-05, 3.48721296e-05,
          4.32987945e-05 ]
      - [ 0., 0., 0., 0., 0., 0., 0., 0., 0., 0., 0., 0., 0., 0., 0., 0.,
          0., 0., 0., 0., 0., 0., 0., 0., 0., 0., 0., 0., 0., 0., 0., 0.,
          0., 0., 0., 0., 0., 0., 0., 0., 0., 0., 0., 0., 0., 0., 0., 0.,
          3.82862963e-05, -1.18788557e-05, 9.34667987e-05,
          -2.63465017e-06, -4.83181830e-05, 5.45948169e-05,
          8.03226576e-05, -1.29244600e-05, -1.54687896e-05,
          2.50057183e-05, -2.63539841e-05, -9.72085327e-05,
          4.79856426e-05, 2.58380769e-05, -5.03400152e-05,
          1.92394782e-05 ]
      - [ 0., 0., 0., 0., 0., 0., 0., 0., 0., 0., 0., 0., 0., 0., 0., 0.,
          0., 0., 0., 0., 0., 0., 0., 0., 0., 0., 0., 0., 0., 0., 0., 0.,
          0., 0., 0., 0., 0., 0., 0., 0., 0., 0., 0., 0., 0., 0., 0., 0.,
          7.87217687e-06, 2.33216524e-05, 1.46585535e-05,
          -2.89715699e-05, 3.12701777e-05, -6.27522895e-05,
          2.22342369e-05, 2.90356402e-05, 1.24883081e-05,
          -6.17763362e-06, 3.78684163e-05, -4.10284447e-05,
          -5.52028505e-05, 6.93072216e-05, -1.07897285e-05,
          -1.34706224e-05 ]
      - [ 0., 0., 0., 0., 0., 0., 0., 0., 0., 0., 0., 0., 0., 0., 0., 0.,
          0., 0., 0., 0., 0., 0., 0., 0., 0., 0., 0., 0., 0., 0., 0., 0.,
          0., 0., 0., 0., 0., 0., 0., 0., 0., 0., 0., 0., 0., 0., 0., 0.,
          1.48503095e-05, 2.45398860e-06, 3.00551856e-05, 1.95114262e-05,
          -3.36528246e-05, 5.55617771e-05, 2.19015601e-05,
          2.13916719e-05, 3.71848655e-05, 2.57572246e-05, 1.40723214e-05,
          -1.80337538e-05, -2.95892696e-05, 4.12279660e-05,
          4.84561533e-05, 3.71729075e-05 ]
      - [ 0., 0., 0., 0., 0., 0., 0., 0., 0., 0., 0., 0., 0., 0., 0., 0.,
          0., 0., 0., 0., 0., 0., 0., 0., 0., 0., 0., 0., 0., 0., 0., 0.,
          0., 0., 0., 0., 0., 0., 0., 0., 0., 0., 0., 0., 0., 0., 0., 0.,
          -5.45466319e-05, -3.14528916e-05, -1.22547272e-06,
          -4.92947074e-05, 5.72077151e-05, -9.82595907e-07,
          -2.63954225e-05, -3.91529211e-05, 4.66452111e-05,
          2.77907620e-05, -1.67889857e-06, -2.33556093e-05,
          -5.77626779e-05, 4.01848811e-05, 6.10376301e-05,
          1.86417692e-05 ]
      - [ 0., 0., 0., 0., 0., 0., 0., 0., 0., 0., 0., 0., 0., 0., 0., 0.,
          0., 0., 0., 0., 0., 0., 0., 0., 0., 0., 0., 0., 0., 0., 0., 0.,
          0., 0., 0., 0., 0., 0., 0., 0., 0., 0., 0., 0., 0., 0., 0., 0.,
          -2.18462137e-05, -2.15252840e-05, 3.87423679e-05,
          -4.69153429e-06, 2.17624784e-05, -1.48609897e-05,
          -1.36479657e-05, -1.40856018e-05, 2.79464530e-05,
          3.78168465e-07, 5.67422558e-06, 1.31628185e-05,
          -4.77931571e-05, 7.67755046e-06, 1.06585503e-05,
          5.52824895e-06 ]
      - [ 0., 0., 0., 0., 0., 0., 0., 0., 0., 0., 0., 0., 0., 0., 0., 0.,
          0., 0., 0., 0., 0., 0., 0., 0., 0., 0., 0., 0., 0., 0., 0., 0.,
          0., 0., 0., 0., 0., 0., 0., 0., 0., 0., 0., 0., 0., 0., 0., 0.,
          -6.53483539e-06, -5.33616112e-05, 4.84848533e-05,
          1.76972153e-05, 3.82640683e-05, -6.93701804e-05,
          3.28947863e-05, -3.24684006e-05, 9.12996802e-06,
          -5.96857126e-06, 3.59960941e-05, 2.96277340e-05,
          -8.88594877e-05, 1.97168138e-05, -3.89996330e-06,
          9.14340490e-06 ]
      - [ 0., 0., 0., 0., 0., 0., 0., 0., 0., 0., 0., 0., 0., 0., 0., 0.,
          0., 0., 0., 0., 0., 0., 0., 0., 0., 0., 0., 0., 0., 0., 0., 0.,
          0., 0., 0., 0., 0., 0., 0., 0., 0., 0., 0., 0., 0., 0., 0., 0.,
          -2.40273384e-05, 7.68704704e-05, -4.27745872e-05,
          5.80360356e-05, -7.45599827e-05, 2.46537729e-05,
          3.76634080e-06, 3.53130940e-06, 4.63420729e-05,
          -8.13652441e-05, 3.75178115e-06, 9.50236517e-06,
          -5.21841830e-05, 7.93994404e-05, -3.22601882e-05,
          -1.40457769e-05 ]
      - [ 0., 0., 0., 0., 0., 0., 0., 0., 0., 0., 0., 0., 0., 0., 0., 0.,
          0., 0., 0., 0., 0., 0., 0., 0., 0., 0., 0., 0., 0., 0., 0., 0.,
          0., 0., 0., 0., 0., 0., 0., 0., 0., 0., 0., 0., 0., 0., 0., 0.,
          5.34863557e-06, -1.85368317e-05, 1.73279805e-05,
          8.51472942e-06, 1.99046099e-06, 1.17490299e-05, 3.61607908e-06,
          -1.33413450e-05, 8.88728937e-06, 1.47265091e-05,
          1.26570485e-05, -4.80526433e-06, -1.77949878e-05,
          1.14402856e-05, 1.24187163e-05, 2.83654163e-06 ]
      - [ 0., 0., 0., 0., 0., 0., 0., 0., 0., 0., 0., 0., 0., 0., 0., 0.,
          0., 0., 0., 0., 0., 0., 0., 0., 0., 0., 0., 0., 0., 0., 0., 0.,
          0., 0., 0., 0., 0., 0., 0., 0., 0., 0., 0., 0., 0., 0., 0., 0.,
          1.35348137e-05, 4.35995753e-06, 2.79458504e-06, 2.57142874e-05,
          -2.97887163e-05, 2.03976788e-06, 2.97108290e-05,
          3.25816327e-05, 1.81811101e-05, 1.56797669e-05,
          -6.54575115e-06, 1.31561656e-05, -2.68901968e-05,
          7.19730622e-07, 3.54748518e-05, 3.50228875e-05 ]
      - [ 0., 0., 0., 0., 0., 0., 0., 0., 0., 0., 0., 0., 0., 0., 0., 0.,
          0., 0., 0., 0., 0., 0., 0., 0., 0., 0., 0., 0., 0., 0., 0., 0.,
          0., 0., 0., 0., 0., 0., 0., 0., 0., 0., 0., 0., 0., 0., 0., 0.,
          1.26501127e-05, -1.29085074e-05, -6.40132521e-06,
          -2.60767638e-06, 2.67748737e-06, -1.27709143e-07,
          -2.80761583e-07, -4.79564096e-06, 1.54025531e-06,
          -3.76560251e-06, 4.45646128e-06, -5.60270450e-07,
          -6.45097680e-06, -3.48714957e-06, 2.71705562e-06,
          -1.59747071e-06 ]
      - [ 0., 0., 0., 0., 0., 0., 0., 0., 0., 0., 0., 0., 0., 0., 0., 0.,
          0., 0., 0., 0., 0., 0., 0., 0., 0., 0., 0., 0., 0., 0., 0., 0.,
          0., 0., 0., 0., 0., 0., 0., 0., 0., 0., 0., 0., 0., 0., 0., 0.,
          6.49571439e-06, -7.96367203e-06, -1.33547192e-05,
          7.40909172e-06, 3.66673567e-06, -1.32511295e-05,
          -8.91348191e-06, -2.80499989e-06, -4.31366152e-06,
          2.38866687e-06, -5.36243806e-06, 7.70334736e-06,
          -1.04053988e-05, -1.45895501e-05, -1.03284719e-06,
          -4.99482803e-06 ]
      - [ 0., 0., 0., 0., 0., 0., 0., 0., 0., 0., 0., 0., 0., 0., 0., 0.,
          0., 0., 0., 0., 0., 0., 0., 0., 0., 0., 0., 0., 0., 0., 0., 0.,
          0., 0., 0., 0., 0., 0., 0., 0., 0., 0., 0., 0., 0., 0., 0., 0.,
          1.33365957e-05, -2.99397434e-05, -2.49255645e-05,
          4.25347789e-05, -1.24540757e-05, 1.11007985e-05,
          2.38746397e-05, 4.24407517e-06, -2.74057456e-05,
          -1.75111654e-05, 6.33420359e-06, 4.81944408e-05,
          -8.38062624e-06, -1.55895559e-05, 3.85453677e-05,
          -9.28068039e-06 ]
      - [ 0., 0., 0., 0., 0., 0., 0., 0., 0., 0., 0., 0., 0., 0., 0., 0.,
          0., 0., 0., 0., 0., 0., 0., 0., 0., 0., 0., 0., 0., 0., 0., 0.,
          0., 0., 0., 0., 0., 0., 0., 0., 0., 0., 0., 0., 0., 0., 0., 0.,
          1.13043079e-05, -1.39042641e-05, -9.04745957e-06,
          1.39767035e-05, -4.32323441e-06, -6.32750971e-06,
          -1.12894286e-05, -8.47568481e-06, -1.29908312e-05,
          -2.40447412e-06, 8.36697200e-06, 1.75289460e-05,
          -2.04593434e-05, -1.42564577e-05, -9.45696320e-06,
          -9.72523958e-06 ]
      - [ 0., 0., 0., 0., 0., 0., 0., 0., 0., 0., 0., 0., 0., 0., 0., 0.,
          0., 0., 0., 0., 0., 0., 0., 0., 0., 0., 0., 0., 0., 0., 0., 0.,
          0., 0., 0., 0., 0., 0., 0., 0., 0., 0., 0., 0., 0., 0., 0., 0.,
          1.50036158e-05, -1.31635170e-05, -1.79915260e-05,
          1.01064024e-05, 7.20724574e-06, -9.64489573e-06,
          -1.10496339e-05, -1.31583638e-05, -1.73100416e-05,
          -2.15758132e-06, 5.00405667e-06, 1.89433140e-05,
          -1.90322553e-05, -1.61092012e-05, -5.36974449e-06,
          -2.16837907e-05 ]
      - [ 0., 0., 0., 0., 0., 0., 0., 0., 0., 0., 0., 0., 0., 0., 0., 0.,
          0., 0., 0., 0., 0., 0., 0., 0., 0., 0., 0., 0., 0., 0., 0., 0.,
          0., 0., 0., 0., 0., 0., 0., 0., 0., 0., 0., 0., 0., 0., 0., 0.,
          7.72933799e-06, -1.83933353e-05, 5.27392103e-06,
          3.71099704e-05, 7.15934584e-06, 5.20169942e-06, 2.63536162e-06,
          -4.63137576e-06, -2.53964718e-05, -1.40458169e-05,
          2.94616366e-05, 5.07162331e-05, -2.73944115e-05,
          -6.16598754e-06, 1.70540159e-06, -1.96293186e-05 ]
      - [ 0., 0., 0., 0., 0., 0., 0., 0., 0., 0., 0., 0., 0., 0., 0., 0.,
          0., 0., 0., 0., 0., 0., 0., 0., 0., 0., 0., 0., 0., 0., 0., 0.,
          0., 0., 0., 0., 0., 0., 0., 0., 0., 0., 0., 0., 0., 0., 0., 0.,
          5.09177698e-06, -7.16912973e-06, -1.27700187e-05,
          4.23040910e-06, 3.36754920e-06, -1.52930825e-05,
          -3.22591359e-06, -5.84349027e-06, -3.88166745e-06,
          -1.84912676e-06, 1.95029742e-07, 3.86513011e-06,
          -7.86801684e-06, -1.79909930e-05, 9.63121465e-07,
          -5.28593273e-06 ]
      - [ 0., 0., 0., 0., 0., 0., 0., 0., 0., 0., 0., 0., 0., 0., 0., 0.,
          0., 0., 0., 0., 0., 0., 0., 0., 0., 0., 0., 0., 0., 0., 0., 0.,
          0., 0., 0., 0., 0., 0., 0., 0., 0., 0., 0., 0., 0., 0., 0., 0.,
          -3.12339466e-06, -1.88537124e-05, -2.26518623e-05,
          2.16817480e-05, 1.10750607e-05, -1.42119598e-05,
          -1.83928532e-05, -2.29545985e-05, -2.71332465e-06,
          -7.64414654e-06, 1.71738502e-05, 1.01894566e-05,
          -2.47030621e-05, -1.60117270e-05, 8.85480677e-06,
          -1.71562133e-05 ]
      - [ 0., 0., 0., 0., 0., 0., 0., 0., 0., 0., 0., 0., 0., 0., 0., 0.,
          0., 0., 0., 0., 0., 0., 0., 0., 0., 0., 0., 0., 0., 0., 0., 0.,
          0., 0., 0., 0., 0., 0., 0., 0., 0., 0., 0., 0., 0., 0., 0., 0.,
          2.90832463e-06, -5.27502198e-06, -1.00926695e-06,
          -1.30849105e-06, -2.18198170e-06, 4.53406500e-07,
          -6.14875546e-07, -3.68984456e-06, -3.15529792e-06,
          -1.30147992e-05, 4.76227751e-06, 1.63118386e-06,
          1.75389545e-07, -6.81569588e-07, -5.31601870e-07,
          -1.20605919e-05 ]
      - [ 0., 0., 0., 0., 0., 0., 0., 0., 0., 0., 0., 0., 0., 0., 0., 0.,
          0., 0., 0., 0., 0., 0., 0., 0., 0., 0., 0., 0., 0., 0., 0., 0.,
          0., 0., 0., 0., 0., 0., 0., 0., 0., 0., 0., 0., 0., 0., 0., 0.,
          4.29364673e-06, -1.01775013e-05, -1.65694892e-05,
          9.05095749e-06, 2.66309576e-06, -1.07913584e-05,
          1.34423635e-06, -4.27403984e-06, -1.25756605e-05,
          -7.89179194e-06, 7.40005362e-06, 7.33613797e-06,
          -1.90643987e-05, -1.24341123e-05, 5.38561062e-06,
          -8.60553064e-06 ]
      - [ 0., 0., 0., 0., 0., 0., 0., 0., 0., 0., 0., 0., 0., 0., 0., 0.,
          0., 0., 0., 0., 0., 0., 0., 0., 0., 0., 0., 0., 0., 0., 0., 0.,
          0., 0., 0., 0., 0., 0., 0., 0., 0., 0., 0., 0., 0., 0., 0., 0.,
          -9.42284441e-06, -2.29358357e-05, -8.86121597e-06,
          2.96519993e-05, 2.53502731e-05, -2.31640624e-05,
          -3.14010395e-05, -2.84399412e-05, 1.34517677e-06,
          8.92834487e-06, 8.61149329e-06, 2.02918691e-05,
          -3.41042105e-05, -2.43730519e-05, 1.11093113e-05,
          -1.79940835e-05 ]
      - [ 0., 0., 0., 0., 0., 0., 0., 0., 0., 0., 0., 0., 0., 0., 0., 0.,
          0., 0., 0., 0., 0., 0., 0., 0., 0., 0., 0., 0., 0., 0., 0., 0.,
          0., 0., 0., 0., 0., 0., 0., 0., 0., 0., 0., 0., 0., 0., 0., 0.,
          1.11954078e-05, -1.54127010e-05, -1.60031868e-05,
          7.76927027e-06, 1.00377692e-05, -6.50662605e-06,
          -2.95395762e-06, -7.58641499e-06, -1.68060706e-05,
          -9.12163978e-06, 1.44573032e-05, 5.68022551e-06,
          -1.32522655e-05, -1.31376682e-05, -2.22772982e-07,
          -1.39418698e-05 ]
      - [ 0., 0., 0., 0., 0., 0., 0., 0., 0., 0., 0., 0., 0., 0., 0., 0.,
          0., 0., 0., 0., 0., 0., 0., 0., 0., 0., 0., 0., 0., 0., 0., 0.,
          0., 0., 0., 0., 0., 0., 0., 0., 0., 0., 0., 0., 0., 0., 0., 0.,
          -6.94114351e-06, -1.53720830e-05, 1.06726293e-05,
          4.12425943e-05, 1.46169805e-06, -2.53851113e-06,
          -9.39331403e-06, -1.27305393e-05, -1.17244156e-06,
          -7.22507457e-06, 1.82796939e-05, 4.21824006e-05,
          -2.62907470e-05, -7.71031591e-06, 6.04859406e-06,
          -7.81504423e-06 ]
      - [ 0., 0., 0., 0., 0., 0., 0., 0., 0., 0., 0., 0., 0., 0., 0., 0.,
          0., 0., 0., 0., 0., 0., 0., 0., 0., 0., 0., 0., 0., 0., 0., 0.,
          0., 0., 0., 0., 0., 0., 0., 0., 0., 0., 0., 0., 0., 0., 0., 0.,
          7.93114123e-06, -2.29737179e-05, 1.51488011e-05,
          4.08333981e-05, 1.87906062e-05, -8.54772406e-06,
          -1.58804505e-05, -9.05293473e-06, -1.20942914e-05,
          -1.54984048e-06, 1.75486311e-05, 6.10922070e-05,
          -4.08756096e-05, -1.35395039e-05, -1.35010014e-05,
          -8.19594516e-06 ]
      - [ 0., 0., 0., 0., 0., 0., 0., 0., 0., 0., 0., 0., 0., 0., 0., 0.,
          0., 0., 0., 0., 0., 0., 0., 0., 0., 0., 0., 0., 0., 0., 0., 0.,
          0., 0., 0., 0., 0., 0., 0., 0., 0., 0., 0., 0., 0., 0., 0., 0.,
          9.38405122e-08, -1.24288463e-05, -2.06858949e-05,
          9.75409785e-06, 1.56266906e-05, -1.42218369e-05,
          -1.21185594e-05, -9.76272531e-06, -1.14162140e-05,
          -3.18487366e-07, 9.48053912e-06, 1.02490803e-05,
          -2.54264251e-05, -1.28826796e-05, 3.50559321e-06,
          -9.02348620e-06 ]
      - [ 0., 0., 0., 0., 0., 0., 0., 0., 0., 0., 0., 0., 0., 0., 0., 0.,
          0., 0., 0., 0., 0., 0., 0., 0., 0., 0., 0., 0., 0., 0., 0., 0.,
          0., 0., 0., 0., 0., 0., 0., 0., 0., 0., 0., 0., 0., 0., 0., 0.,
          -8.25260145e-07, -2.04458665e-05, -8.68704046e-06,
          9.28001555e-06, 1.02905960e-05, -2.39686619e-06,
          -3.67858661e-07, -5.82728489e-06, -1.32950263e-05,
          -1.39479653e-05, 2.10260478e-05, 1.22171823e-05,
          -2.43139875e-05, -6.23513051e-06, 1.16194406e-05,
          -5.02037938e-06 ]
      - [ 0., 0., 0., 0., 0., 0., 0., 0., 0., 0., 0., 0., 0., 0., 0., 0.,
          0., 0., 0., 0., 0., 0., 0., 0., 0., 0., 0., 0., 0., 0., 0., 0.,
          0., 0., 0., 0., 0., 0., 0., 0., 0., 0., 0., 0., 0., 0., 0., 0.,
          5.24400821e-05, -1.32662653e-05, 2.49344630e-05,
          1.03186932e-04, 1.79879731e-04, 1.88310096e-05, 7.05939528e-05,
          2.36147680e-05, -3.54506119e-05, -9.57515658e-06,
          -3.05256108e-05, 8.82371969e-05, -2.08395984e-04,
          -5.83413566e-05, -2.26208158e-05, -2.20355287e-05 ]
      - [ 0., 0., 0., 0., 0., 0., 0., 0., 0., 0., 0., 0., 0., 0., 0., 0.,
          0., 0., 0., 0., 0., 0., 0., 0., 0., 0., 0., 0., 0., 0., 0., 0.,
          0., 0., 0., 0., 0., 0., 0., 0., 0., 0., 0., 0., 0., 0., 0., 0.,
          1.85865556e-05, -6.10242569e-05, -3.50660848e-05,
          1.11218405e-05, 6.19110651e-05, -6.13995724e-07,
          -5.06688548e-06, -1.69294162e-05, -4.38052157e-05,
          6.24399763e-06, 2.53028156e-05, -7.32015087e-06,
          -5.88953553e-05, -5.82167013e-06, -3.51436461e-06,
          1.30681457e-07 ]
      - [ 0., 0., 0., 0., 0., 0., 0., 0., 0., 0., 0., 0., 0., 0., 0., 0.,
          0., 0., 0., 0., 0., 0., -3.22332561e-08, -1.88400264e-07,
          -3.02774652e-07, -3.22332561e-08, 0., 0., 0., 0., 0., 0., 0.,
          0., 0., 0., 0., 0., 0., 0., 0., 0., 0., 0., 0., 0., 0., 0.,
          7.74386353e-06, -1.50929409e-05, -9.37271034e-06,
          1.95230677e-06, 4.26760198e-06, 2.01415651e-06,
          -8.05241143e-06, -9.53475228e-06, -5.79875677e-06,
          -9.72415546e-06, 8.64085905e-06, 2.92738241e-06,
          -9.70241854e-06, 1.12674030e-07, -6.70997360e-06,
          -8.51642199e-06 ]
      - [ 0., 0., 0., 0., 0., 0., 0., 0., 0., 0., 0., 0., 0., 0., 0., 0.,
          0., 0., 0., 0., 0., 0., 0., 0., 0., 0., 0., 0., 0., 0., 0., 0.,
          0., 0., 0., 0., 0., 0., 0., 0., 0., 0., 0., 0., 0., 0., 0., 0.,
          -1.61908811e-05, -5.44950890e-05, -3.96072937e-06,
          2.12769432e-04, -1.39187769e-05, -1.11164427e-05,
          -6.18311788e-06, -5.49232464e-05, -2.13206749e-05,
          -5.24130382e-06, 1.52196963e-05, 9.88212487e-05,
          -4.44525140e-05, -2.59086391e-05, 9.91106645e-05,
          -9.16697463e-05 ]
      - [ 0., 0., 0., 0., 0., 0., 0., 0., 0., 0., 0., 0., 0., 0., 0., 0.,
          0., 0., 0., 0., 0., 0., 0., 0., 0., 0., 0., 0., 0., 0., 0., 0.,
          0., 0., 0., 0., 0., 0., 0., 0., 0., 0., 0., 0., 0., 0., 0., 0.,
          2.07024777e-06, -6.89793887e-06, -3.71233932e-06,
          4.67229256e-06, 2.54058773e-06, 3.29279857e-07,
          -3.95745110e-06, -1.40354532e-05, -3.05041499e-06,
          -8.48014770e-06, 1.10392357e-05, 4.46212653e-06,
          -9.73542137e-06, -2.08519054e-06, -7.35774904e-07,
          -1.45114755e-05 ]
      - [ 0., 0., 0., 0., 0., 0., 0., 0., 0., 0., 0., 0., 0., 0., 0., 0.,
          0., 0., 0., 0., 0., 0., 0., 0., 0., 0., 0., 0., 0., 0., 0., 0.,
          0., 0., 0., 0., 0., 0., 0., 0., 0., 0., 0., 0., 0., 0., 0., 0.,
          7.15844862e-06, -1.12479338e-05, -1.71656541e-06,
          1.01457385e-06, 7.43668625e-06, -6.45062528e-08,
          -8.57007217e-06, -1.12850248e-05, -8.36577328e-06,
          -1.64195467e-06, 9.71659301e-06, 2.21911682e-06,
          -8.12836151e-06, 1.46698964e-08, -5.26114991e-06,
          -1.52622906e-05 ]
      - [ 0., 0., 0., 0., 0., 0., 0., 0., 0., 0., 0., 0., 0., 0., 0., 0.,
          0., 0., 0., 0., 0., 0., 0., 0., 0., 0., 0., 0., 0., 0., 0., 0.,
          0., 0., 0., 0., 0., 0., 0., 0., 0., 0., 0., 0., 0., 0., 0., 0.,
          9.44349085e-06, -1.65925794e-05, -2.16919816e-05,
          4.95277754e-06, 1.76657522e-05, -1.05905674e-05,
          -1.14753229e-05, -1.40733100e-05, -2.11649276e-05,
          3.05978301e-06, 1.25708384e-05, 2.50422318e-06,
          -1.79527178e-05, -1.44622682e-05, 9.07186788e-08,
          -1.62088909e-05 ]
      - [ 0., 0., 0., 0., 0., 0., 0., 0., 0., 0., 0., 0., 0., 0., 0., 0.,
          0., 0., 0., 0., 0., 0., 0., 0., 0., 0., 0., 0., 0., 0., 0., 0.,
          0., 0., 0., 0., 0., 0., 0., 0., 0., 0., 0., 0., 0., 0., 0., 0.,
          2.16919689e-05, -2.23867883e-05, -1.95230677e-05,
          1.34510456e-05, 1.45592703e-05, -3.45424496e-06,
          -7.93895833e-06, -3.70577169e-07, -2.60815796e-05,
          -1.37648331e-05, 1.34785969e-05, 2.15712771e-05,
          -2.19784288e-05, -1.90963747e-05, -4.51742289e-06,
          -1.81457781e-05 ]
      - [ 0., 0., 0., 0., 0., 0., 0., 0., 0., 0., 0., 0., 0., 0., 0., 0.,
          0., 0., 0., 0., 0., 0., 0., 0., 0., 0., 0., 0., 0., 0., 0., 0.,
          0., 0., 0., 0., 0., 0., 0., 0., 0., 0., 0., 0., 0., 0., 0., 0.,
          1.83003212e-05, -2.06088498e-05, -5.74279011e-06,
          1.20097711e-05, 1.90168994e-05, -2.67852047e-05,
          -2.79288433e-05, -7.34911782e-06, -1.04920437e-05,
          2.38928124e-06, 1.53581495e-05, 1.14061177e-05,
          -2.25086824e-05, -2.71251902e-05, -2.00889754e-05,
          -1.21263611e-05 ]
      - [ 0., 0., 0., 0., 0., 0., 0., 0., 0., 0., 0., 0., 0., 0., 0., 0.,
          0., 0., 0., 0., 0., 0., 0., 0., 0., 0., 0., 0., 0., 0., 0., 0.,
          0., 0., 0., 0., 0., 0., 0., 0., 0., 0., 0., 0., 0., 0., 0., 0.,
          6.94231221e-06, -1.01658670e-05, -1.03072307e-05,
          -3.15572123e-07, 9.52147911e-06, -3.96281484e-06,
          -4.40538815e-06, -1.01618180e-05, -1.18020771e-05,
          -4.38893449e-06, 1.35961309e-05, 1.30778415e-06,
          -9.23405787e-06, -8.52642552e-06, -4.59099556e-06,
          -8.47459523e-06 ]
      - [ 0., 0., 0., 0., 0., 0., 0., 0., 0., 0., 0., 0., 0., 0., 0., 0.,
          0., 0., 0., 0., 0., 0., 0., 0., 0., 0., 0., 0., 0., 0., 0., 0.,
          0., 0., 0., 0., 0., 0., 0., 0., 0., 0., 0., 0., 0., 0., 0., 0.,
          6.69138308e-06, -6.93559787e-06, -6.72821216e-06,
          -1.26906650e-06, 7.11113853e-06, -5.63100821e-06,
          -1.03208758e-05, -7.44577710e-06, -3.04362811e-06,
          -2.28837166e-06, 4.42607552e-06, 3.06545689e-06,
          -9.09943174e-06, -7.25699556e-06, -8.80296921e-06,
          -6.52687550e-06 ]
      - [ 0., 0., 0., 0., 0., 0., 0., 0., 0., 0., 0., 0., 0., 0., 0., 0.,
          0., 0., 0., 0., 0., 0., 0., 0., 0., 0., 0., 0., 0., 0., 0., 0.,
          0., 0., 0., 0., 0., 0., 0., 0., 0., 0., 0., 0., 0., 0., 0., 0.,
          1.87769747e-05, -2.75416842e-05, 1.89202217e-06,
          -2.58415503e-06, 4.44376274e-05, -9.68470704e-06,
          -1.31698207e-05, 3.52092297e-06, -1.67776525e-05,
          -3.56129908e-06, 3.56448145e-05, 7.71545092e-05,
          -6.27153859e-05, -1.76755457e-05, 7.48592447e-06,
          6.20074479e-06 ]
      - [ 0., 0., 0., 0., 0., 0., 0., 0., 0., 0., 0., 0., 0., 0., 0., 0.,
          0., 0., 0., 0., 0., 0., 0., 0., 0., 0., 0., 0., 0., 0., 0., 0.,
          0., 0., 0., 0., 0., 0., 0., 0., 0., 0., 0., 0., 0., 0., 0., 0.,
          -3.89909019e-06, -1.08632976e-05, -7.26814642e-06,
          1.48298497e-07, 1.44258647e-05, -3.76742105e-06,
          -1.33618414e-06, -7.38295330e-06, -8.21116919e-06,
          -3.15030047e-06, 9.85324732e-06, 7.45268039e-07,
          -1.22881738e-05, -2.34600566e-06, 5.80195683e-06,
          -3.44587625e-06 ]
      - [ 0., 0., 0., 0., 0., 0., 0., 0., 0., 0., 0., 0., 0., 0., 0., 0.,
          0., 0., 0., 0., 0., 0., 0., 0., 0., 0., 0., 0., 0., 0., 0., 0.,
          0., 0., 0., 0., 0., 0., 0., 0., 0., 0., 0., 0., 0., 0., 0., 0.,
          9.19072932e-07, -9.51504353e-06, 6.56835155e-08,
          1.31993750e-06, 4.19158187e-06, 7.13413158e-07,
          -4.28213980e-06, -8.77992261e-06, -1.63439108e-06,
          1.01065564e-06, 3.70707676e-06, 1.01625994e-06,
          -5.29329918e-06, 2.57736502e-07, 5.99108958e-08,
          -3.46223169e-06 ]
      - [ 0., 0., 0., 0., 0., 0., 0., 0., 0., 0., 0., 0., 0., 0., 0., 0.,
          0., 0., 0., 0., 0., 0., 0., 0., 0., 0., 0., 0., 0., 0., 0., 0.,
          0., 0., 0., 0., 0., 0., 0., 0., 0., 0., 0., 0., 0., 0., 0., 0.,
          5.52732047e-07, -9.09411938e-06, -1.46476950e-07,
          3.06008405e-06, 4.94099640e-06, -1.14633004e-07,
          -1.41504563e-06, -1.06999387e-05, -4.46714512e-06,
          9.23536163e-08, 3.76932167e-06, 2.58521197e-07,
          -2.89747959e-06, 2.31686794e-08, -1.20539685e-08,
          -7.75737863e-06 ]
      - [ 0., 0., 0., 0., 0., 0., 0., 0., 0., 0., 0., 0., 0., 0., 0., 0.,
          0., 0., 0., 0., 0., 0., 0., 0., 0., 0., 0., 0., 0., 0., 0., 0.,
          0., 0., 0., 0., 0., 0., 0., 0., 0., 0., 0., 0., 0., 0., 0., 0.,
          7.44374438e-06, -1.19113029e-05, -4.87507350e-06,
          1.07622520e-06, 3.14310319e-06, 8.68921063e-07,
          -3.38036557e-06, -7.64684773e-06, -4.71615976e-07,
          -4.63396964e-06, 2.48039896e-06, 1.26455154e-06,
          -4.28893600e-06, -6.73832856e-09, -1.46892035e-06,
          -6.17077285e-06 ]
      - [ 0., 0., 0., 0., 0., 0., 0., 0., 0., 0., 0., 0., 0., 0., 0., 0.,
          0., 0., 0., 0., 0., 0., 0., 0., 0., 0., 0., 0., 0., 0., 0., 0.,
          0., 0., 0., 0., 0., 0., 0., 0., 0., 0., 0., 0., 0., 0., 0., 0.,
          2.51439428e-06, -1.28156298e-05, -1.33165565e-06,
          8.52908499e-07, 5.09037318e-06, 3.13500294e-07,
          -3.58194416e-06, -1.49285106e-05, -1.12710347e-06,
          -2.10108942e-06, 4.17697947e-06, 2.06651907e-06,
          -8.83969005e-06, -1.05476283e-06, -1.93034361e-06,
          -6.18851527e-06 ]
      - [ 0., 0., 0., 0., 0., 0., 0., 0., 0., 0., 0., 0., 0., 0., 0., 0.,
          0., 0., 0., 0., 0., 0., 0., 0., 0., 0., 0., 0., 0., 0., 0., 0.,
          0., 0., 0., 0., 0., 0., 0., 0., 0., 0., 0., 0., 0., 0., 0., 0.,
          -1.91159160e-07, -1.68467614e-05, -1.61954868e-05,
          4.18982781e-05, 6.68276834e-06, 4.86340105e-06, 6.52171866e-06,
          -2.18593800e-06, -1.67937033e-05, -9.93267713e-06,
          1.20090253e-05, 3.80847268e-05, -2.30522000e-05,
          -2.03441436e-06, 1.66703812e-05, -2.42089232e-06 ]
      - [ 0., 0., 0., 0., 0., 0., 0., 0., 0., 0., 0., 0., 0., 0., 0., 0.,
          0., 0., 0., 0., 0., 0., 0., 0., 0., 0., 0., 0., 0., 0., 0., 0.,
          0., 0., 0., 0., 0., 0., 0., 0., 0., 0., 0., 0., 0., 0., 0., 0.,
          -6.43243675e-06, -3.66099721e-06, -2.31003596e-05,
          -9.54990355e-06, 2.54860515e-06, -1.31411434e-05,
          -1.98981961e-05, -2.22706767e-05, 8.70311214e-06,
          -9.34098898e-06, 1.43164993e-06, -2.72085458e-06,
          -2.48405449e-05, -1.36883409e-05, 5.62134028e-06,
          -1.60634081e-05 ]
      - [ 0., 0., 0., 0., 0., 0., 0., 0., 0., 0., 0., 0., 0., 0., 0., 0.,
          0., 0., 0., 0., 0., 0., 0., 0., 0., 0., 0., 0., 0., 0., 0., 0.,
          0., 0., 0., 0., 0., 0., 0., 0., 0., 0., 0., 0., 0., 0., 0., 0.,
          1.93756568e-05, -1.80391871e-05, -3.46793058e-05,
          8.88648992e-06, 1.45640761e-05, -2.24277792e-05,
          -2.30076330e-06, 3.87052660e-06, -3.52798561e-05,
          -1.59011950e-06, 1.16643942e-05, -1.68689785e-05,
          -1.26902587e-05, -2.29692760e-05, 7.09365122e-06,
          -2.70688852e-05 ]
      - [ 0., 0., 0., 0., 0., 0., 0., 0., 0., 0., 0., 0., 0., 0., 0., 0.,
          0., 0., 0., 0., 0., 0., 0., 0., 0., 0., 0., 0., 0., 0., 0., 0.,
          0., 0., 0., 0., 0., 0., 0., 0., 0., 0., 0., 0., 0., 0., 0., 0.,
          -1.73847513e-06, -1.33373596e-05, -1.54381232e-05,
          2.37818749e-05, 1.43102452e-05, -1.98400321e-05,
          -2.65037397e-05, -1.92400184e-05, 1.52525934e-06,
          -3.19106698e-06, 9.15909732e-06, 1.84051769e-05,
          -2.64662885e-05, -2.15318960e-05, 2.00602653e-06,
          -2.13883341e-05 ]
      - [ 0., 0., 0., 0., 0., 0., 0., 0., 0., 0., 0., 0., 0., 0., 0., 0.,
          0., 0., 0., 0., 0., 0., 0., 0., 0., 0., 0., 0., 0., 0., 0., 0.,
          0., 0., 0., 0., 0., 0., 0., 0., 0., 0., 0., 0., 0., 0., 0., 0.,
          -2.25159074e-05, -1.74006964e-05, -1.21007515e-05,
          -2.12985674e-06, 2.93507237e-05, -2.78787065e-05,
          -2.76628070e-05, -2.65060826e-05, 9.65835352e-06,
          5.30142870e-06, 1.18873977e-05, -2.22021044e-05,
          -2.62484009e-05, -1.83587908e-05, 2.38201246e-05,
          -1.32004525e-05 ]
      - [ 0., 0., 0., 0., 0., 0., 0., 0., 0., 0., 0., 0., 0., 0., 0., 0.,
          0., 0., 0., 0., 0., 0., 0., 0., 0., 0., 0., 0., 0., 0., 0., 0.,
          0., 0., 0., 0., 0., 0., 0., 0., 0., 0., 0., 0., 0., 0., 0., 0.,
          6.53825964e-06, -1.80232437e-05, -1.20898985e-05,
          4.35219727e-06, 3.05404501e-06, -2.82841961e-06,
          -7.82802545e-06, -1.56812457e-05, -5.68299220e-06,
          -1.39251533e-05, 1.20745508e-05, 4.58821069e-06,
          -1.69213472e-05, -7.73010197e-06, 2.11841780e-06,
          -1.62748565e-05 ]
      - [ 0., 0., 0., 0., 0., 0., 0., 0., 0., 0., 0., 0., 0., 0., 0., 0.,
          0., 0., 0., 0., 0., 0., 0., 0., 0., 0., 0., 0., 0., 0., 0., 0.,
          0., 0., 0., 0., 0., 0., 0., 0., 0., 0., 0., 0., 0., 0., 0., 0.,
          3.80511301e-05, -8.01753322e-06, -2.58041255e-05,
          -2.94694019e-05, -2.81438643e-05, -2.21280006e-05,
          -5.18327943e-05, -1.60662821e-05, -1.69396117e-05,
          -1.43683519e-05, 3.26821792e-05, 3.48199210e-05,
          2.57751435e-05, -5.02596231e-06, 3.18666353e-05,
          2.26640295e-05 ]
      - [ 0., 0., 0., 0., 0., 0., 0., 0., 0., 0., 0., 0., 0., 0., 0., 0.,
          0., 0., 0., 0., 0., 0., 0., 0., 0., 0., 0., 0., 0., 0., 0., 0.,
          0., 0., 0., 0., 0., 0., 0., 0., 0., 0., 0., 0., 0., 0., 0., 0.,
          -8.94423829e-06, -1.12244052e-05, -1.38465221e-05,
          1.28315696e-05, 1.17289856e-05, -1.41561859e-05,
          -1.34550792e-05, -1.91374202e-05, 4.78471156e-06,
          -2.16467765e-06, 7.26732014e-06, 6.85812756e-06,
          -1.96031451e-05, -1.14988652e-05, 9.04672470e-06,
          -4.92514164e-06 ]
      - [ 0., 0., 0., 0., 0., 0., 0., 0., 0., 0., 0., 0., 0., 0., 0., 0.,
          0., 0., 0., 0., 0., 0., 0., 0., 0., 0., 0., 0., 0., 0., 0., 0.,
          0., 0., 0., 0., 0., 0., 0., 0., 0., 0., 0., 0., 0., 0., 0., 0.,
          1.11801603e-06, -1.81933447e-05, -4.85879864e-05,
          4.80656890e-05, 1.08473596e-05, 7.35075855e-06, 3.04440232e-06,
          -5.04799355e-05, -2.45102838e-05, -2.37206223e-05,
          4.65919438e-05, -3.19313876e-05, -1.93238557e-05,
          -1.42373228e-05, 1.64424764e-05, -4.63378747e-05 ]
      - [ 0., 0., 0., 0., 0., 0., 0., 0., 0., 0., 0., 0., 0., 0., 0., 0.,
          0., 0., 0., 0., 0., 0., 0., 0., 0., 0., 0., 0., 0., 0., 0., 0.,
          0., 0., 0., 0., 0., 0., 0., 0., 0., 0., 0., 0., 0., 0., 0., 0.,
          7.79126713e-05, -3.85804269e-05, -6.07886323e-05,
          6.55669501e-05, 9.33370829e-05, -2.05740689e-05,
          -1.36807139e-04, 4.12629997e-05, -1.99961032e-05,
          3.50567439e-06, 4.77242356e-05, -3.64924817e-05,
          -9.47960943e-05, -1.14516646e-04, -1.33654714e-04,
          3.66474560e-05 ]
      - [ 0., 0., 0., 0., 0., 0., 0., 0., 0., 0., 0., 0., 0., 0., 0., 0.,
          0., 0., 0., 0., 0., 0., 0., 0., 0., 0., 0., 0., 0., 0., 0., 0.,
          0., 0., 0., 0., 0., 0., 0., 0., 0., 0., 0., 0., 0., 0., 0., 0.,
          5.13764790e-05, -2.34772378e-05, -3.61226885e-05,
          2.17152447e-05, 4.38231909e-05, -1.41171267e-05,
          -1.73621011e-05, -9.46553337e-06, -1.10243054e-05,
          2.35025600e-05, 1.75352743e-05, 4.91433320e-06,
          -4.42705932e-05, -3.80621941e-06, -1.46408474e-05,
          -1.49404759e-05 ]
      - [ 0., 0., 0., 0., 0., 0., 0., 0., 0., 0., 0., 0., 0., 0., 0., 0.,
          0., 0., 0., 0., 0., 0., 0., 0., 0., 0., 0., 0., 0., 0., 0., 0.,
          0., 0., 0., 0., 0., 0., 0., 0., 0., 0., 0., 0., 0., 0., 0., 0.,
          1.00574425e-05, -1.93032211e-05, -2.01233761e-05,
          4.03380727e-06, 1.00188645e-05, -8.99530187e-06,
          -1.31263205e-05, -1.23301770e-05, -7.34282867e-06,
          -8.93344441e-06, 1.10714900e-05, -3.19294486e-06,
          -1.48772369e-05, -6.46163289e-06, -7.28915620e-06,
          -1.14582454e-05 ]
      - [ 0., 0., 0., 0., 0., 0., 0., 0., 0., 0., 0., 0., 0., 0., 0., 0.,
          0., 0., 0., 0., 0., 0., 0., 0., 0., 0., 0., 0., 0., 0., 0., 0.,
          0., 0., 0., 0., 0., 0., 0., 0., 0., 0., 0., 0., 0., 0., 0., 0.,
          8.01139959e-06, 5.49102151e-06, 2.34562049e-05, 1.06853418e-04,
          5.61534944e-05, 5.71716737e-05, 2.05533015e-05,
          -9.83277369e-06, -1.15732792e-05, -1.31817678e-05,
          -2.93256198e-05, -5.83785695e-05, -4.98475565e-05,
          -4.50251355e-05, -3.83503429e-05, -1.33893327e-05 ]
      - [ 0., 0., 0., 0., 0., 0., 0., 0., 0., 0., 0., 0., 0., 0., 0., 0.,
          0., 0., 0., 0., 0., 0., 0., 0., 0., 0., 0., 0., 0., 0., 0., 0.,
          0., 0., 0., 0., 0., 0., 0., 0., 0., 0., 0., 0., 0., 0., 0., 0.,
          3.60410377e-05, -1.77906841e-05, -3.68050787e-05,
          1.60578966e-05, -1.36880208e-05, -1.84046767e-05,
          1.20466648e-05, -2.07699122e-05, -3.68143010e-05,
          -1.80049192e-05, 1.70465428e-05, -4.35129152e-07,
          -4.99399266e-06, -6.29461138e-05, 4.71465484e-07,
          -3.13870369e-05 ]
      - [ 0., 0., 0., 0., 0., 0., 0., 0., 0., 0., 0., 0., 0., 0., 0., 0.,
          0., 0., 0., 0., 0., 0., 0., 0., 0., 0., 0., 0., 0., 0., 0., 0.,
          0., 0., 0., 0., 0., 0., 0., 0., 0., 0., 0., 0., 0., 0., 0., 0.,
          2.44319908e-05, -3.08363778e-05, -3.56167839e-05,
          2.96529488e-05, -1.30812814e-05, -2.48229317e-05,
          7.57863063e-06, -2.55053164e-05, -3.96847063e-05,
          -1.67030867e-05, 3.56115816e-05, -2.39276415e-05,
          -9.61447313e-06, -5.70416814e-05, 2.16015578e-05,
          -4.47994098e-05 ]
      - [ 0., 0., 0., 0., 0., 0., 0., 0., 0., 0., 0., 0., 0., 0., 0., 0.,
          0., 0., 0., 0., 0., 0., 0., 0., 0., 0., 0., 0., 0., 0., 0., 0.,
          0., 0., 0., 0., 0., 0., 0., 0., 0., 0., 0., 0., 0., 0., 0., 0.,
          9.94688799e-06, -1.77763068e-05, -1.79847939e-05,
          1.34824704e-05, 1.48959116e-05, -1.01476744e-05,
          -1.47390529e-05, -1.59583942e-05, -1.75915975e-05,
          1.91882077e-06, 1.15869916e-05, 1.26469931e-05,
          -1.88838421e-05, -1.48925383e-05, -6.70324596e-07,
          -2.01850016e-05 ]
      - [ 0., 0., 0., 0., 0., 0., 0., 0., 0., 0., 0., 0., 0., 0., 0., 0.,
          0., 0., 0., 0., 0., 0., 0., 0., 0., 0., 0., 0., 0., 0., 0., 0.,
          0., 0., 0., 0., 0., 0., 0., 0., 0., 0., 0., 0., 0., 0., 0., 0.,
          2.67514097e-05, -2.01229850e-05, -2.34290874e-05,
          2.58855039e-06, 1.11177451e-05, -4.81074358e-06,
          -5.31465730e-06, 4.19319349e-07, -3.20124600e-05,
          -9.19153081e-06, 1.12379503e-05, -2.84161388e-06,
          -1.25573515e-05, -1.95425237e-05, -3.21614084e-06,
          -2.49835375e-05 ]
      - [ 0., 0., 0., 0., 0., 0., 0., 0., 0., 0., 0., 0., 0., 0., 0., 0.,
          0., 0., 0., 0., 0., 0., 0., 0., 0., 0., 0., 0., 0., 0., 0., 0.,
          0., 0., 0., 0., 0., 0., 0., 0., 0., 0., 0., 0., 0., 0., 0., 0.,
          -2.15390610e-05, -2.32325874e-05, -1.57181421e-05,
          5.76865386e-06, 2.27126420e-05, -3.05579233e-05,
          -1.41219980e-05, -4.20112010e-05, 2.78357243e-06,
          1.08439576e-06, 1.43171656e-05, -1.69337636e-05,
          -1.47224227e-05, -3.44486834e-05, 2.78641201e-05,
          -8.45561772e-06 ]
      - [ 0., 0., 0., 0., 0., 0., 0., 0., 0., 0., 0., 0., 0., 0., 0., 0.,
          0., 0., 0., 0., 0., 0., 0., 0., 0., 0., 0., 0., 0., 0., 0., 0.,
          0., 0., 0., 0., 0., 0., 0., 0., 0., 0., 0., 0., 0., 0., 0., 0.,
          8.61409426e-05, -1.08230262e-04, -1.41298864e-04,
          1.49900021e-04, 1.16904848e-05, -1.87049609e-05,
          1.89891271e-05, -1.20043827e-04, -9.83091231e-05,
          -1.36695498e-05, 2.51485308e-05, 7.61294450e-06,
          -5.20501635e-05, -8.28130578e-05, 4.87156854e-07,
          -8.81247615e-05 ]
      - [ 0., 0., 0., 0., 0., 0., 0., 0., 0., 0., 0., 0., 0., 0., 0., 0.,
          0., 0., 0., 0., 0., 0., 0., 0., 0., 0., 0., 0., 0., 0., 0., 0.,
          0., 0., 0., 0., 0., 0., 0., 0., 0., 0., 0., 0., 0., 0., 0., 0.,
          8.93337074e-06, -7.78428421e-06, -5.73806074e-06,
          -1.89495211e-06, 5.32085005e-06, -6.11578616e-06,
          -8.93037668e-06, -4.77233789e-06, -2.43465342e-06,
          -6.68754524e-07, 4.35117090e-06, 1.74247464e-06,
          -7.86752298e-06, -7.36262427e-06, -5.78266008e-06,
          -5.40948940e-06 ]
      - [ 0., 0., 0., 0., 0., 0., 0., 0., 0., 0., 0., 0., 0., 0., 0., 0.,
          0., 0., 0., 0., 0., 0., 0., 0., 0., 0., 0., 0., 0., 0., 0., 0.,
          0., 0., 0., 0., 0., 0., 0., 0., 0., 0., 0., 0., 0., 0., 0., 0.,
          4.57736569e-05, -9.72695125e-06, -4.31042936e-05,
          4.30447726e-05, 6.77932258e-05, 6.61377135e-06,
          -7.17399671e-05, 4.42476266e-06, 1.55918933e-05,
          1.70666663e-05, 2.61827809e-05, -2.67387095e-05,
          -6.74074399e-05, -7.87261670e-05, -5.91899552e-05,
          1.63990153e-05 ]
      - [ 0., 0., 0., 0., 0., 0., 0., 0., 0., 0., 0., 0., 0., 0., 0., 0.,
          0., 0., 0., 0., 0., 0., 0., 0., 0., 0., 0., 0., 0., 0., 0., 0.,
          0., 0., 0., 0., 0., 0., 0., 0., 0., 0., 0., 0., 0., 0., 0., 0.,
          -1.09268776e-05, -9.44216845e-06, -1.42857343e-05,
          -6.77830394e-06, 1.93999531e-05, -1.36842727e-05,
          -9.85584575e-06, -2.20623242e-05, 3.73837793e-06,
          -1.92792572e-06, 1.07050446e-05, -9.15613964e-06,
          -1.96325673e-05, -7.06440596e-06, 5.64447873e-06,
          -6.31178818e-06 ]
      - [ 0., 0., 0., 0., 0., 0., 0., 0., 0., 0., 0., 0., 0., 0., 0., 0.,
          0., 0., 0., 0., 0., 0., 0., 0., 0., 0., 0., 0., 0., 0., 0., 0.,
          0., 0., 0., 0., 0., 0., 0., 0., 0., 0., 0., 0., 0., 0., 0., 0.,
          2.68769463e-06, -8.75094247e-06, -2.27640703e-06,
          -4.02831773e-07, 4.20557308e-06, 3.07803703e-07,
          -2.36288224e-06, -8.30528734e-06, -1.24899785e-07,
          -1.44297815e-06, 3.00919396e-06, 7.24763964e-08,
          -6.62299362e-06, 1.87066469e-08, -1.40974157e-06,
          -3.19644391e-06 ]
      - [ 0., 0., 0., 0., 0., 0., 0., 0., 0., 0., 0., 0., 0., 0., 0., 0.,
          0., 0., 0., 0., 0., 0., 0., 0., 0., 0., 0., 0., 0., 0., 0., 0.,
          0., 0., 0., 0., 0., 0., 0., 0., 0., 0., 0., 0., 0., 0., 0., 0.,
          2.50767903e-06, -9.88801366e-06, 4.91305556e-08,
          2.41095813e-06, 4.72249030e-06, 1.98572863e-07,
          -2.72288685e-06, -8.78857463e-06, -4.55845657e-06,
          5.46894938e-08, 4.33568766e-06, 9.79614128e-07,
          -4.45341402e-06, 1.33926250e-07, -2.28590906e-07,
          -7.48542243e-06 ]
      - [ 0., 0., 0., 0., 0., 0., 0., 0., 0., 0., 0., 0., 0., 0., 0., 0.,
          0., 0., 0., 0., 0., 0., 0., 0., 0., 0., 0., 0., 0., 0., 0., 0.,
          0., 0., 0., 0., 0., 0., 0., 0., 0., 0., 0., 0., 0., 0., 0., 0.,
          1.18519811e-05, -1.23203990e-05, -9.22489289e-06,
          5.85750684e-07, 4.41082830e-06, 1.38737914e-06,
          -5.84287272e-06, -2.40204554e-06, -5.83636449e-07,
          -2.71536123e-06, 2.55873738e-06, 1.82634847e-06,
          -7.93022082e-06, 7.09111930e-07, -1.61280218e-06,
          -2.53746384e-06 ]
      - [ 0., 0., 0., 0., 0., 0., 0., 0., 0., 0., 0., 0., 0., 0., 0., 0.,
          0., 0., 0., 0., 0., 0., 0., 0., 0., 0., 0., 0., 0., 0., 0., 0.,
          0., 0., 0., 0., 0., 0., 0., 0., 0., 0., 0., 0., 0., 0., 0., 0.,
          1.79360461e-06, -8.66409664e-06, -4.77291962e-07,
          8.52240191e-07, 4.55613963e-06, 7.67663607e-07,
          -4.87013904e-06, -1.06470688e-05, -7.15496014e-07,
          -1.64254595e-06, 2.17696174e-06, 1.26774910e-06,
          -4.89039985e-06, 3.51696286e-07, -3.48339722e-06,
          -6.70182362e-06 ]
      - [ 0., 0., 0., 0., 0., 0., 0., 0., 0., 0., 0., 0., 0., 0., 0., 0.,
          0., 0., 0., 0., 0., 0., 0., 0., 0., 0., 0., 0., 0., 0., 0., 0.,
          0., 0., 0., 0., 0., 0., 0., 0., 0., 0., 0., 0., 0., 0., 0., 0.,
          5.60336730e-06, -3.27051202e-05, -1.24091493e-05,
          2.82385536e-05, 1.03607636e-05, 2.60754609e-06, 8.17679938e-06,
          -9.93386129e-06, -1.79724666e-05, -5.69154190e-06,
          6.85062196e-06, 2.70135533e-05, -2.15449490e-05,
          -9.46945647e-07, 1.85009812e-05, -7.36203083e-06 ]
      - [ 0., 0., 0., 0., 0., 0., 0., 0., 0., 0., 0., 0., 0., 0., 0., 0.,
          0., 0., 0., 0., 0., 0., 0., 0., 0., 0., 0., 0., 0., 0., 0., 0.,
          0., 0., 0., 0., 0., 0., 0., 0., 0., 0., 0., 0., 0., 0., 0., 0.,
          5.41742520e-06, -1.99263036e-06, -1.13663609e-05,
          -2.96630915e-05, 3.60310660e-05, -4.60969022e-05,
          -2.71230256e-05, 1.18794296e-05, -9.10237577e-06,
          1.63646982e-05, 1.83103202e-05, 1.13290298e-05,
          -1.78566843e-05, -6.19766579e-05, -1.10586120e-06,
          7.56450618e-06 ]
      - [ 0., 0., 0., 0., 0., 0., 0., 0., 0., 0., 0., 0., 0., 0., 0., 0.,
          0., 0., 0., 0., 0., 0., 0., 0., 0., 0., 0., 0., 0., 0., 0., 0.,
          0., 0., 0., 0., 0., 0., 0., 0., 0., 0., 0., 0., 0., 0., 0., 0.,
          -1.60610056e-04, 1.39249041e-05, 4.54701840e-05,
          1.29139344e-05, -7.21403603e-06, -3.08811104e-05,
          1.94743207e-05, 3.52449097e-05, 2.30640198e-05,
          -8.54897517e-05, -3.07746122e-05, -5.04895215e-05,
          1.90305018e-05, 5.00457718e-05, -3.00913271e-05,
          1.01312224e-04 ]
      - [ 0., 0., 0., 0., 0., 0., 0., 0., 0., 0., 0., 0., 0., 0., 0., 0.,
          0., 0., 0., 0., 0., 0., 0., 0., 0., 0., 0., 0., 0., 0., 0., 0.,
          0., 0., 0., 0., 0., 0., 0., 0., 0., 0., 0., 0., 0., 0., 0., 0.,
          -1.59016236e-05, -1.82779570e-06, -1.45802733e-05,
          -3.46953311e-05, 6.00347885e-05, -4.22247831e-05,
          -9.81983521e-06, 8.39724271e-06, 6.50285483e-06,
          1.29404571e-05, 2.44770836e-05, -3.60772788e-06,
          -5.45529765e-05, -2.81019165e-05, 1.32530959e-05,
          1.69319883e-05 ]
      - [ 0., 0., 0., 0., 0., 0., 0., 0., 0., 0., 0., 0., 0., 0., 0., 0.,
          0., 0., 0., 0., 0., 0., 0., 0., 0., 0., 0., 0., 0., 0., 0., 0.,
          0., 0., 0., 0., 0., 0., 0., 0., 0., 0., 0., 0., 0., 0., 0., 0.,
          -2.39784422e-05, -4.05956371e-06, 1.16575238e-05,
          -2.60926299e-05, 3.20635554e-05, -1.58796029e-05,
          -1.49188008e-05, -3.45313629e-06, -2.34179629e-06,
          9.79117431e-06, -1.56924652e-05, 4.29210104e-06,
          5.46926367e-06, -4.04534558e-06, 8.33612773e-07,
          -3.08776112e-06 ]
      - [ 0., 0., 0., 0., 0., 0., 0., 0., 0., 0., 0., 0., 0., 0., 0., 0.,
          0., 0., 0., 0., 0., 0., 0., 0., 0., 0., 0., 0., 0., 0., 0., 0.,
          0., 0., 0., 0., 0., 0., 0., 0., 0., 0., 0., 0., 0., 0., 0., 0.,
          -3.88094413e-05, 2.86241516e-06, -9.94798120e-06,
          -3.80760248e-05, 9.49457972e-05, -1.62670021e-05,
          1.89502662e-05, -4.34492404e-06, 5.09550264e-05,
          -1.33804815e-06, 5.98243923e-06, 3.78163277e-05,
          -1.14302107e-04, 5.82222783e-05, 4.28736275e-05,
          -1.40771344e-05 ]
      - [ 0., 0., 0., 0., 0., 0., 0., 0., 0., 0., 0., 0., 0., 0., 0., 0.,
          0., 0., 0., 0., 0., 0., 0., 0., 0., 0., 0., 0., 0., 0., 0., 0.,
          0., 0., 0., 0., 0., 0., 0., 0., 0., 0., 0., 0., 0., 0., 0., 0.,
          -8.79787331e-06, -4.20998049e-06, 4.07392736e-06,
          -6.53150073e-06, 1.80564966e-05, -1.07435135e-05,
          -8.72044711e-06, -3.16024830e-06, -2.19496837e-06,
          8.11239534e-06, -7.30354168e-06, 4.16213425e-07,
          9.62773083e-06, -7.23693074e-06, -4.04162620e-06,
          1.26919826e-06 ]
      - [ 0., 0., 0., 0., 0., 0., 0., 0., 0., 0., 0., 0., 0., 0., 0., 0.,
          0., 0., 0., 0., 0., 0., 0., 0., 0., 0., 0., 0., 0., 0., 0., 0.,
          0., 0., 0., 0., 0., 0., 0., 0., 0., 0., 0., 0., 0., 0., 0., 0.,
          -1.54626214e-05, -1.05526924e-05, 8.47699721e-06,
          -1.58651073e-05, 3.31338633e-05, -1.20988689e-05,
          -1.34657039e-05, -8.26603900e-06, -5.61373281e-06,
          1.45025351e-05, -9.26784833e-06, 5.46263709e-06,
          1.61001242e-06, -4.93014795e-06, -4.73681030e-06,
          2.67257451e-06 ]
      - [ 0., 0., 0., 0., 0., 0., 0., 0., 0., 0., 0., 0., 0., 0., 0., 0.,
          0., 0., 0., 0., 0., 0., 0., 0., 0., 0., 0., 0., 0., 0., 0., 0.,
          0., 0., 0., 0., 0., 0., 0., 0., 0., 0., 0., 0., 0., 0., 0., 0.,
          -1.88335780e-05, 6.38251504e-06, 1.71405409e-05,
          1.31980698e-06, -1.48605141e-05, -7.69547626e-08,
          -4.29573248e-07, -7.91845196e-06, -6.41454608e-06,
          -1.02095955e-05, -5.54556209e-06, 9.77438130e-10,
          1.59209430e-05, 9.19699323e-06, -8.47425417e-06,
          -2.02098490e-05 ]
      - [ 0., 0., 0., 0., 0., 0., 0., 0., 0., 0., 0., 0., 0., 0., 0., 0.,
          0., 0., 0., 0., 0., 0., 0., 0., 0., 0., 0., 0., 0., 0., 0., 0.,
          0., 0., 0., 0., 0., 0., 0., 0., 0., 0., 0., 0., 0., 0., 0., 0.,
          -1.94871227e-05, 1.01003407e-05, 8.82509084e-06,
          -1.59653118e-05, 5.40584369e-06, -2.15801119e-05,
          -1.86381681e-06, 1.29013404e-06, -2.64765858e-05,
          1.11882737e-05, 1.56888091e-05, -1.60447889e-05,
          -1.68154784e-05, -3.16774754e-06, -3.77589413e-06,
          -1.32008272e-05 ]
      - [ 0., 0., 0., 0., 0., 0., 0., 0., 0., 0., 0., 0., 0., 0., 0., 0.,
          0., 0., 0., 0., 0., 0., 0., 0., 0., 0., 0., 0., 0., 0., 0., 0.,
          0., 0., 0., 0., 0., 0., 0., 0., 0., 0., 0., 0., 0., 0., 0., 0.,
          -1.30538174e-05, -6.69346127e-06, 8.22902894e-06,
          -2.13845015e-05, 2.82470501e-05, -9.58457895e-06,
          -1.14132590e-05, -4.78013362e-06, -4.16856892e-06,
          9.16868794e-06, -5.90105265e-06, 3.15197940e-06,
          2.23186112e-06, -1.10662259e-05, -2.11289489e-06,
          3.89112711e-06 ]
      - [ 0., 0., 0., 0., 0., 0., 0., 0., 0., 0., 0., 0., 0., 0., 0., 0.,
          0., 0., 0., 0., 0., 0., 0., 0., 0., 0., 0., 0., 0., 0., 0., 0.,
          0., 0., 0., 0., 0., 0., 0., 0., 0., 0., 0., 0., 0., 0., 0., 0.,
          -2.97693241e-05, 1.20925997e-05, 1.32829700e-06,
          -1.18530643e-05, 1.14404365e-05, -7.32178114e-06,
          -8.08562709e-06, -2.91198171e-06, -2.14760894e-05,
          1.26135737e-05, 1.89923057e-07, 2.46540458e-06,
          -8.79295385e-06, -7.67930669e-06, -2.44925354e-06,
          6.31283058e-07 ]
      - [ 0., 0., 0., 0., 0., 0., 0., 0., 0., 0., 0., 0., 0., 0., 0., 0.,
          0., 0., 0., 0., 0., 0., 0., 0., 0., 0., 0., 0., 0., 0., 0., 0.,
          0., 0., 0., 0., 0., 0., 0., 0., 0., 0., 0., 0., 0., 0., 0., 0.,
          -1.98722009e-05, -7.85085774e-07, 1.45612876e-05,
          -2.83036684e-06, -4.51189726e-06, -2.50899120e-06,
          2.09232624e-07, -1.25330428e-06, -1.11356449e-05,
          1.13062697e-05, -4.44046684e-08, -5.49898914e-06,
          -8.69899213e-06, 4.03819695e-06, 3.57730278e-06,
          2.99680255e-06 ]
      - [ 0., 0., 0., 0., 0., 0., 0., 0., 0., 0., 0., 0., 0., 0., 0., 0.,
          0., 0., 0., 0., 0., 0., 0., 0., 0., 0., 0., 0., 0., 0., 0., 0.,
          0., 0., 0., 0., 0., 0., 0., 0., 0., 0., 0., 0., 0., 0., 0., 0.,
          -1.34379507e-05, 9.35090338e-06, 8.51747609e-06,
          2.23275578e-07, 2.54670636e-06, -2.43212048e-06,
          -4.94078586e-06, 4.90139610e-06, -3.31655610e-06,
          1.12925272e-05, 3.24449132e-07, 1.09833547e-06,
          -9.20720504e-06, 4.52921176e-06, 1.48374886e-06,
          1.49942127e-06 ]
      - [ 0., 0., 0., 0., 0., 0., 0., 0., 0., 0., 0., 0., 0., 0., 0., 0.,
          0., 0., 0., 0., 0., 0., 0., 0., 0., 0., 0., 0., 0., 0., 0., 0.,
          0., 0., 0., 0., 0., 0., 0., 0., 0., 0., 0., 0., 0., 0., 0., 0.,
          -8.32316800e-06, 1.35222592e-06, 1.72578802e-06,
          -1.27861995e-05, 1.84121709e-05, -1.84696946e-05,
          -8.74240595e-06, 4.59226840e-06, -1.06807022e-06,
          3.29207478e-06, 4.24329528e-06, -1.68839551e-06,
          -1.81015021e-05, -2.91119454e-06, -6.06316735e-06,
          5.27285283e-06 ]
      - [ 0., 0., 0., 0., 0., 0., 0., 0., 0., 0., 0., 0., 0., 0., 0., 0.,
          0., 0., 0., 0., 0., 0., 0., 0., 0., 0., 0., 0., 0., 0., 0., 0.,
          0., 0., 0., 0., 0., 0., 0., 0., 0., 0., 0., 0., 0., 0., 0., 0.,
          -1.31289426e-05, 8.43940052e-06, 2.52136851e-06,
          -2.55501095e-06, -2.40793099e-07, -1.15822054e-07,
          1.27196802e-06, 7.02889622e-08, -7.58240139e-06,
          4.88533487e-06, 3.04154014e-06, -1.05079960e-06,
          -5.37253527e-06, 9.39955044e-07, 1.61953812e-06,
          1.25885890e-06 ]
      - [ 0., 0., 0., 0., 0., 0., 0., 0., 0., 0., 0., 0., 0., 0., 0., 0.,
          0., 0., 0., 0., 0., 0., 0., 0., 0., 0., 0., 0., 0., 0., 0., 0.,
          0., 0., 0., 0., 0., 0., 0., 0., 0., 0., 0., 0., 0., 0., 0., 0.,
          -1.41625560e-05, 2.13025669e-05, 3.36366202e-06,
          7.16641679e-08, 9.36781998e-06, 2.06496466e-07,
          -1.42731369e-06, 9.12760697e-06, -7.61368938e-07,
          8.89529201e-06, 2.25469830e-06, 3.97811937e-06, 8.64014396e-07,
          3.55857696e-06, 2.25325994e-06, 5.24965617e-06 ]
      - [ 0., 0., 0., 0., 0., 0., 0., 0., 0., 0., 0., 0., 0., 0., 0., 0.,
          0., 0., 0., 0., 0., 0., 0., 0., 0., 0., 0., 0., 0., 0., 0., 0.,
          0., 0., 0., 0., 0., 0., 0., 0., 0., 0., 0., 0., 0., 0., 0., 0.,
          -1.33216454e-05, 2.17541219e-06, 2.80363088e-06,
          -5.85039970e-06, 1.94502463e-05, -3.22381266e-06,
          -5.81707081e-06, 6.66145752e-07, 4.10669600e-07,
          8.22826041e-06, -4.79366190e-06, 2.13519684e-06,
          -5.71947567e-07, 1.21248934e-06, 1.83183147e-06,
          4.93158677e-06 ]
      - [ 0., 0., 0., 0., 0., 0., 0., 0., 0., 0., 0., 0., 0., 0., 0., 0.,
          0., 0., 0., 0., 0., -1.54095545e-07, -4.43116789e-07,
          -4.17396279e-07, -1.61022251e-06, -3.57354850e-07, 0., 0., 0.,
          0., 0., 0., 0., 0., 0., 0., 0., 0., 0., 0., 0., 0., 0., 0., 0.,
          0., 0., 0., -1.69485993e-05, 1.09018838e-05, 1.37457673e-05,
          -1.12346243e-05, 4.02351088e-06, 1.34295015e-05,
          -2.07654944e-06, -1.46146958e-05, -2.10389662e-05,
          1.38964961e-05, -1.36803301e-05, 1.47923984e-05,
          -3.92053562e-06, 2.09563768e-05, -2.49604818e-05,
          -2.79365395e-05 ]
      - [ 0., 0., 0., 0., 0., 0., 0., 0., 0., 0., 0., 0., 0., 0., 0., 0.,
          0., 0., 0., 0., 0., 0., 0., 0., 0., 0., 0., 0., 0., 0., 0., 0.,
          0., 0., 0., 0., 0., 0., 0., 0., 0., 0., 0., 0., 0., 0., 0., 0.,
          -3.81900572e-05, 1.15845060e-05, 1.22118936e-05,
          5.60575700e-07, -1.29265561e-06, 3.65285274e-07,
          -1.87998035e-06, 4.75556135e-06, 4.87190221e-07,
          8.38159667e-06, -1.49213938e-05, -1.31136503e-05,
          3.12345765e-06, 1.05925028e-05, 1.05750396e-05, 4.86752742e-06 ]
      - [ 0., 0., 0., 0., 0., 0., 0., 0., 0., 0., 0., 0., 0., 0., 0., 0.,
          0., 0., 0., 0., 0., 0., 0., 0., 0., 0., 0., 0., 0., 0., 0., 0.,
          0., 0., 0., 0., 0., 0., 0., 0., 0., 0., 0., 0., 0., 0., 0., 0.,
          -2.51709171e-05, 2.00907925e-06, 2.72042894e-06,
          -1.74458523e-06, 4.94330334e-06, 2.25513190e-06,
          -4.90632056e-06, -1.20816012e-05, -1.06646494e-05,
          -1.66629127e-06, -3.75003492e-06, -1.91584172e-06,
          4.39962423e-06, 4.23098436e-06, -3.38082759e-06,
          -7.79348829e-06 ]
      - [ 0., 0., 0., 0., 0., 0., 0., 0., 0., 0., 0., 0., 0., 0., 0., 0.,
          0., 0., 0., 0., 0., 0., 0., 0., 0., 0., 0., 0., 0., 0., 0., 0.,
          0., 0., 0., 0., 0., 0., 0., 0., 0., 0., 0., 0., 0., 0., 0., 0.,
          -1.16240199e-05, 3.65000551e-06, 2.96160761e-06,
          -4.53800055e-07, 3.48457229e-06, -1.67061842e-07,
          -4.63895185e-06, -5.32374361e-06, -5.94464200e-06,
          4.04204548e-06, 9.42701774e-07, 6.28498981e-07,
          -2.25531744e-06, 1.71336615e-06, -3.09374286e-06,
          -3.83277802e-06 ]
      - [ 0., 0., 0., 0., 0., 0., 0., 0., 0., 0., 0., 0., 0., 0., 0., 0.,
          0., 0., 0., 0., 0., 0., 0., 0., 0., 0., 0., 0., 0., 0., 0., 0.,
          0., 0., 0., 0., 0., 0., 0., 0., 0., 0., 0., 0., 0., 0., 0., 0.,
          -8.37323933e-06, -5.76028060e-06, 4.34976164e-06,
          -9.19073591e-06, 2.11670849e-05, -7.11087432e-06,
          -7.65301229e-06, -2.64918003e-06, -1.81942812e-06,
          7.54880966e-06, -5.94949915e-06, -3.13998635e-06,
          1.11667505e-05, -3.14603130e-06, -4.03111744e-06,
          2.71659883e-06 ]
      - [ 0., 0., 0., 0., 0., 0., 0., 0., 0., 0., 0., 0., 0., 0., 0., 0.,
          0., 0., 0., 0., 0., 0., 0., 0., 0., 0., 0., 0., 0., 0., 0., 0.,
          0., 0., 0., 0., 0., 0., 0., 0., 0., 0., 0., 0., 0., 0., 0., 0.,
          -1.96866549e-05, 2.43502163e-05, 6.10236702e-06,
          -2.09875343e-05, 1.06047655e-05, -3.64973721e-06,
          -4.77840831e-06, 6.43249359e-06, -1.08703689e-05,
          5.79332755e-06, 9.93441972e-06, -2.52268978e-06,
          -1.71087922e-05, -1.22764754e-06, -5.52346728e-06,
          6.96713244e-07 ]
      - [ 0., 0., 0., 0., 0., 0., 0., 0., 0., 0., 0., 0., 0., 0., 0., 0.,
          0., 0., 0., 0., 0., 0., 0., 0., 0., 0., 0., 0., 0., 0., 0., 0.,
          0., 0., 0., 0., 0., 0., 0., 0., 0., 0., 0., 0., 0., 0., 0., 0.,
          -7.58679744e-06, -3.94390190e-06, 2.63710717e-06,
          -1.24032949e-05, 2.24275718e-05, -9.63529510e-06,
          -9.54034203e-06, -4.16505463e-06, -1.78114328e-06,
          8.11538030e-06, -7.14570888e-06, 9.63074399e-07,
          4.86850104e-06, -5.82751636e-06, -6.68579605e-06,
          6.82026894e-07 ]
      - [ 0., 0., 0., 0., 0., 0., 0., 0., 0., 0., 0., 0., 0., 0., 0., 0.,
          0., 0., 0., 0., 0., 0., 0., 0., 0., 0., 0., 0., 0., 0., 0., 0.,
          0., 0., 0., 0., 0., 0., 0., 0., 0., 0., 0., 0., 0., 0., 0., 0.,
          -8.84656765e-06, 2.61519290e-06, 4.42107103e-06,
          -2.93090579e-06, 1.58902662e-06, -1.24027520e-06,
          -2.04775901e-07, -1.18906155e-05, -1.51212098e-05,
          8.17613272e-06, 4.87551961e-06, 1.92976972e-06,
          -5.43341230e-06, -3.29502495e-06, -6.95911012e-06,
          -7.82782445e-06 ]
      - [ 0., 0., 0., 0., 0., 0., 0., 0., 0., 0., 0., 0., 0., 0., 0., 0.,
          0., 0., 0., 0., 0., 0., 0., 0., 0., 0., 0., 0., 0., 0., 0., 0.,
          0., 0., 0., 0., 0., 0., 0., 0., 0., 0., 0., 0., 0., 0., 0., 0.,
          5.26417853e-06, -2.18379341e-06, 9.43084706e-06,
          -1.24335947e-05, 1.67774178e-05, -2.19759440e-05,
          -1.86147972e-05, 9.47021647e-07, -4.75748857e-06,
          9.09014852e-06, 1.87161925e-06, -1.10616713e-06,
          -8.96004906e-07, -1.13737242e-05, -1.19830520e-05,
          -1.66161772e-05 ]
      - [ 0., 0., 0., 0., 0., 0., 0., 0., 0., 0., 0., 0., 0., 0., 0., 0.,
          0., 0., 0., 0., 0., 0., 0., 0., 0., 0., 0., 0., 0., 0., 0., 0.,
          0., 0., 0., 0., 0., 0., 0., 0., 0., 0., 0., 0., 0., 0., 0., 0.,
          -1.61018434e-05, 9.18889418e-06, 5.07256232e-07,
          -1.73243336e-06, 5.36347989e-06, -8.31499221e-07,
          -4.27306446e-07, -2.07631206e-06, -8.17393357e-06,
          9.25087988e-06, 1.42236399e-06, 1.55590249e-06,
          -9.91782235e-06, 3.30507737e-06, 5.06835192e-07,
          1.90422861e-06 ]
      - [ 0., 0., 0., 0., 0., 0., 0., 0., 0., 0., 0., 0., 0., 0., 0., 0.,
          0., 0., 0., 0., 0., 0., 0., 0., 0., 0., 0., 0., 0., 0., 0., 0.,
          0., 0., 0., 0., 0., 0., 0., 0., 0., 0., 0., 0., 0., 0., 0., 0.,
          -9.35933986e-06, -1.66580037e-06, -2.89304649e-06,
          -4.17389538e-06, 9.88924967e-06, -2.50676112e-06,
          -2.20831203e-06, -1.12341274e-06, -6.91947616e-06,
          2.67950873e-06, -4.01934045e-07, -7.96208440e-07,
          -4.77646381e-06, -2.58587249e-07, 2.56497060e-07,
          2.07371932e-06 ]
      - [ 0., 0., 0., 0., 0., 0., 0., 0., 0., 0., 0., 0., 0., 0., 0., 0.,
          0., 0., 0., 0., 0., 0., 0., 0., 0., 0., 0., 0., 0., 0., 0., 0.,
          0., 0., 0., 0., 0., 0., 0., 0., 0., 0., 0., 0., 0., 0., 0., 0.,
          -1.29621287e-06, -1.34463471e-05, -9.17443344e-07,
          4.11320752e-06, 8.99771203e-06, 2.42727015e-06,
          -5.10206473e-06, -1.01352725e-05, -1.32881078e-05,
          9.69483517e-06, 2.11873072e-07, -3.23251743e-06,
          -2.47431757e-07, 4.19427897e-06, -4.99360522e-06,
          -3.33468438e-06 ]
      - [ 0., 0., 0., 0., 0., 0., 0., 0., 0., 0., 0., 0., 0., 0., 0., 0.,
          0., 0., 0., 0., 0., 0., 0., 0., 0., 0., 0., 0., 0., 0., 0., 0.,
          0., 0., 0., 0., 0., 0., 0., 0., 0., 0., 0., 0., 0., 0., 0., 0.,
          -5.24215739e-06, -8.14670966e-06, 8.53235974e-07,
          -5.65376972e-08, 6.42250870e-06, -5.01325133e-07,
          -1.51508232e-06, -9.06052537e-06, -9.65529216e-06,
          2.67676683e-06, -1.92698531e-06, -5.69467829e-07,
          2.29956549e-06, 1.06843549e-06, -3.54457211e-06,
          -4.98250802e-06 ]
      - [ 0., 0., 0., 0., 0., 0., 0., 0., 0., 0., 0., 0., 0., 0., 0., 0.,
          0., 0., 0., 0., 0., 0., 0., 0., 0., 0., 0., 0., 0., 0., 0., 0.,
          0., 0., 0., 0., 0., 0., 0., 0., 0., 0., 0., 0., 0., 0., 0., 0.,
          -1.19754541e-05, -2.12623800e-05, 6.50638458e-06,
          -2.37640870e-06, 2.41933412e-05, 6.68923894e-06,
          -2.23882507e-05, -3.35775549e-05, -7.38504423e-06,
          1.09935536e-05, -8.16310785e-06, 2.02874999e-05,
          -1.27764242e-05, 2.74913509e-05, -1.39477070e-05,
          -2.51563615e-05 ]
      - [ 0., 0., 0., 0., 0., 0., 0., 0., 0., 0., 0., 0., 0., 0., 0., 0.,
          0., 0., 0., 0., 0., 0., 0., 0., 0., 0., 0., 0., 0., 0., 0., 0.,
          0., 0., 0., 0., 0., 0., 0., 0., 0., 0., 0., 0., 0., 0., 0., 0.,
          -5.82653774e-06, -1.58925304e-05, 6.61267632e-06,
          -7.36447646e-06, 2.34227045e-05, -7.39661175e-07,
          -1.43917587e-05, -2.15197524e-05, -7.46594833e-06,
          9.18477326e-06, -3.92033553e-06, 3.07015034e-06,
          6.45760281e-07, 2.94953384e-06, -1.06240032e-05,
          -1.17828122e-05 ]
      - [ 0., 0., 0., 0., 0., 0., 0., 0., 0., 0., 0., 0., 0., 0., 0., 0.,
          0., 0., 0., 0., 0., 0., 0., 0., 0., 0., 0., 0., 0., 0., 0., 0.,
          0., 0., 0., 0., 0., 0., 0., 0., 0., 0., 0., 0., 0., 0., 0., 0.,
          -1.27007916e-05, -2.30467376e-05, -3.65052620e-05,
          4.82260793e-06, 7.36666698e-05, 2.91598712e-06,
          -2.41354542e-06, -2.14203774e-05, 1.12315129e-05,
          2.25442782e-05, 4.46618360e-05, -1.22789024e-05,
          -8.63607638e-05, 3.69442969e-05, 3.83956503e-05,
          2.18893983e-05 ]
      - [ 0., 0., 0., 0., 0., 0., 0., 0., 0., 0., 0., 0., 0., 0., 0., 0.,
          0., 0., 0., 0., 0., 0., 0., 0., 0., 0., 0., 0., 0., 0., 0., 0.,
          0., 0., 0., 0., 0., 0., 0., 0., 0., 0., 0., 0., 0., 0., 0., 0.,
          -1.89684579e-05, 1.90361334e-05, 3.84493469e-05,
          -3.62852734e-05, 2.11469414e-05, -1.31152819e-05,
          -3.49901165e-05, 1.68533461e-05, 2.78624384e-06,
          -3.07270716e-06, -2.68828389e-05, 4.10327539e-06,
          6.13131874e-07, 2.77674535e-05, -1.31361721e-05,
          -3.54477233e-05 ]
      - [ 0., 0., 0., 0., 0., 0., 0., 0., 0., 0., 0., 0., 0., 0., 0., 0.,
          0., 0., 0., 0., 0., 0., 0., 0., 0., 0., 0., 0., 0., 0., 0., 0.,
          0., 0., 0., 0., 0., 0., 0., 0., 0., 0., 0., 0., 0., 0., 0., 0.,
          -3.26873887e-05, 7.98636938e-06, 3.43031957e-06,
          -1.94423683e-05, 7.76282832e-06, -1.68295683e-05,
          -3.97049143e-06, -1.58253147e-06, -1.83556367e-05,
          1.78027733e-06, 6.81590382e-06, -2.89065720e-05,
          1.29315958e-06, -4.27684427e-06, -1.14939269e-06,
          -3.83656425e-06 ]
      - [ 0., 0., 0., 0., 0., 0., 0., 0., 0., 0., 0., 0., 0., 0., 0., 0.,
          0., 0., 0., 0., 0., 0., 0., 0., 0., 0., 0., 0., 0., 0., 0., 0.,
          0., 0., 0., 0., 0., 0., 0., 0., 0., 0., 0., 0., 0., 0., 0., 0.,
          -1.54965091e-05, -6.13880093e-06, 4.79409664e-06,
          -2.68031617e-05, 3.32928830e-05, -1.89504935e-05,
          -2.54008992e-05, 1.60517561e-06, -2.24641190e-06,
          9.17559191e-06, -3.60970876e-06, 9.18390742e-06,
          -1.97003574e-05, -8.77439743e-06, -6.01959482e-06,
          7.47444847e-06 ]
      - [ 0., 0., 0., 0., 0., 0., 0., 0., 0., 0., 0., 0., 0., 0., 0., 0.,
          0., 0., 0., 0., 0., 0., 0., 0., 0., 0., 0., 0., 0., 0., 0., 0.,
          0., 0., 0., 0., 0., 0., 0., 0., 0., 0., 0., 0., 0., 0., 0., 0.,
          -2.45544725e-05, 1.08702525e-05, 2.92899426e-06,
          -8.14537088e-06, 4.25751750e-06, -9.09668927e-07,
          -2.64969958e-06, -4.15751674e-06, -8.96978781e-06,
          4.43726009e-07, -1.31144179e-06, -3.76521689e-06,
          -1.43145678e-06, -1.64810456e-06, -1.19633182e-06,
          -2.01468106e-06 ]
      - [ 0., 0., 0., 0., 0., 0., 0., 0., 0., 0., 0., 0., 0., 0., 0., 0.,
          0., 0., 0., 0., 0., 0., 0., 0., 0., 0., 0., 0., 0., 0., 0., 0.,
          0., 0., 0., 0., 0., 0., 0., 0., 0., 0., 0., 0., 0., 0., 0., 0.,
          -2.55046925e-05, 1.42184226e-05, 3.82316539e-05,
          -8.81741726e-05, 6.61512604e-05, -3.97174517e-05,
          -8.25039606e-05, 3.55516931e-05, 1.22955480e-05,
          1.19961614e-05, -1.60694435e-05, 1.47346391e-05,
          -5.82061002e-05, 1.40290495e-05, -3.04701698e-05,
          -1.97331938e-05 ]
      - [ 0., 0., 0., 0., 0., 0., 0., 0., 0., 0., 0., 0., 0., 0., 0., 0.,
          0., 0., 0., 0., 0., 0., 0., 0., 0., 0., 0., 0., 0., 0., 0., 0.,
          0., 0., 0., 0., 0., 0., 0., 0., 0., 0., 0., 0., 0., 0., 0., 0.,
          -3.36892954e-05, 2.01736275e-05, 9.88223474e-06,
          3.81501138e-07, 5.91577555e-06, -4.72689499e-06,
          -1.79630078e-05, 1.27687990e-05, 8.63532023e-07,
          8.47195679e-06, -1.11694180e-05, -1.86753323e-06,
          6.90611614e-06, 3.43233432e-06, 2.47749449e-06, 5.25982796e-06 ]
      - [ 0., 0., 0., 0., 0., 0., 0., 0., 0., 0., 0., 0., 0., 0., 0., 0.,
          0., 0., 0., 0., 0., 0., 0., 0., 0., 0., 0., 0., 0., 0., 0., 0.,
          0., 0., 0., 0., 0., 0., 0., 0., 0., 0., 0., 0., 0., 0., 0., 0.,
          -2.06383975e-05, -9.93183676e-06, 5.55732777e-06,
          -2.09564150e-05, 4.29101055e-05, -2.15232594e-05,
          -1.96916553e-05, -2.80294330e-06, -3.25282463e-06,
          1.15737021e-05, -1.15768153e-05, 9.62476861e-06,
          -2.56255935e-05, -3.62219839e-06, -1.34058446e-05,
          8.48831223e-06 ]
      - [ 0., 0., 0., 0., 0., 0., 0., 0., 0., 0., 0., 0., 0., 0., 0., 0.,
          0., 0., 0., 0., 0., 0., 0., 0., 0., 0., 0., 0., 0., 0., 0., 0.,
          0., 0., 0., 0., 0., 0., 0., 0., 0., 0., 0., 0., 0., 0., 0., 0.,
          -1.47968613e-05, 7.96123913e-06, 3.47747095e-06,
          -7.69741348e-07, -3.16198498e-06, 1.02655667e-06,
          -5.18466834e-07, 9.30905856e-07, -5.54746384e-06,
          2.77955291e-06, -3.20921595e-06, -3.73585817e-06,
          2.65666745e-06, 1.33715707e-06, -1.03573143e-06,
          1.32503521e-06 ]
      - [ 0., 0., 0., 0., 0., 0., 0., 0., 0., 0., 0., 0., 0., 0., 0., 0.,
          0., 0., 0., 0., 0., 0., 0., 0., 0., 0., 0., 0., 0., 0., 0., 0.,
          0., 0., 0., 0., 0., 0., 0., 0., 0., 0., 0., 0., 0., 0., 0., 0.,
          -1.14261848e-05, 1.93193646e-05, 4.82686528e-06,
          4.39693940e-06, 7.10814902e-06, 1.85542194e-06,
          -4.01335046e-06, 7.43937653e-06, -2.56221801e-06,
          1.08197173e-05, 1.87987496e-06, 5.66048266e-06, 3.74744013e-06,
          4.83555232e-06, -2.23919415e-06, 4.09018821e-06 ]
      - [ 0., 0., 0., 0., 0., 0., 0., 0., 0., 0., 0., 0., 0., 0., 0., 0.,
          0., 0., 0., 0., 0., 0., 0., 0., 0., 0., 0., 0., 0., 0., 0., 0.,
          0., 0., 0., 0., 0., 0., 0., 0., 0., 0., 0., 0., 0., 0., 0., 0.,
          -1.57444265e-05, 3.73473290e-06, 2.55077271e-06,
          -3.52786265e-06, 1.71987122e-05, -2.45330466e-06,
          -6.30632530e-06, 5.11771589e-07, -4.89371985e-07,
          8.76779177e-06, -5.51620224e-06, 2.06041977e-06,
          1.74306274e-06, 1.37189397e-06, 1.55099997e-06, 5.53331165e-06 ]
      - [ 0., 0., 0., 0., 0., 0., 0., 0., 0., 0., 0., 0., 0., 0., 0., 0.,
          0., 0., 0., 0., 0., 0., 0., 0., 0., 0., 0., 0., 0., 0., 0., 0.,
          0., 0., 0., 0., 0., 0., 0., 0., 0., 0., 0., 0., 0., 0., 0., 0.,
          -1.70791300e-05, 2.40297541e-05, 2.47183436e-07,
          -3.25982592e-06, -3.34702554e-06, 7.07843947e-06,
          -2.12725763e-06, -7.38308654e-06, -1.70997046e-05,
          1.01541918e-05, -2.59274725e-06, -1.46885623e-06,
          9.17541314e-08, 5.51033690e-06, -1.06497764e-05,
          -1.68094539e-05 ]
      - [ 0., 0., 0., 0., 0., 0., 0., 0., 0., 0., 0., 0., 0., 0., 0., 0.,
          0., 0., 0., 0., 0., 0., 0., 0., 0., 0., 0., 0., 0., 0., 0., 0.,
          0., 0., 0., 0., 0., 0., 0., 0., 0., 0., 0., 0., 0., 0., 0., 0.,
          -1.66348837e-05, 1.41522369e-05, 3.64903622e-06,
          2.68267672e-06, -4.78134507e-06, 1.95846178e-06,
          -9.85518113e-07, 2.08929077e-06, -5.59745331e-06,
          3.64423295e-06, -2.08432448e-06, -3.60543299e-06,
          4.05315086e-06, 3.47106811e-06, 2.23213215e-06,
          -4.40943859e-06 ]
      - [ 0., 0., 0., 0., 0., 0., 0., 0., 0., 0., 0., 0., 0., 0., 0., 0.,
          0., 0., 0., 0., 0., 0., 0., 0., 0., 0., 0., 0., 0., 0., 0., 0.,
          0., 0., 0., 0., 0., 0., 0., 0., 0., 0., 0., 0., 0., 0., 0., 0.,
          -2.33327028e-05, 5.84667396e-06, 2.76879632e-06,
          -1.01961768e-06, 1.54503175e-06, 2.78111702e-06,
          -4.78829133e-06, -1.23059158e-06, -1.14058148e-05,
          -3.52559482e-07, -6.16867646e-06, -3.49045308e-06,
          6.50641687e-06, 2.14432430e-06, -6.38477013e-06,
          5.07355878e-07 ]
      - [ 0., 0., 0., 0., 0., 0., 0., 0., 0., 0., 0., 0., 0., 0., 0., 0.,
          0., 0., 0., 0., 0., 0., 0., 0., 0., 0., 0., 0., 0., 0., 0., 0.,
          0., 0., 0., 0., 0., 0., 0., 0., 0., 0., 0., 0., 0., 0., 0., 0.,
          -1.76878711e-05, 2.14809143e-06, 1.96724636e-06,
          -2.00443537e-06, 2.64818573e-06, -7.17943351e-07,
          -2.29383886e-06, -6.52988228e-06, -8.92877597e-06,
          1.36331960e-06, -2.80867380e-06, -4.95162658e-06,
          4.59932744e-06, -3.37145252e-07, -1.28779436e-06,
          -3.60446893e-06 ]
      - [ 0., 0., 0., 0., 0., 0., 0., 0., 0., 0., 0., 0., 0., 0., 0., 0.,
          0., 0., 0., 0., 0., 0., 0., 0., 0., 0., 0., 0., 0., 0., 0., 0.,
          0., 0., 0., 0., 0., 0., 0., 0., 0., 0., 0., 0., 0., 0., 0., 0.,
          -1.39735766e-05, -4.65196172e-06, 8.13534643e-06,
          -8.41568362e-06, 2.45036535e-05, -7.81891140e-06,
          -1.20537306e-05, -1.83629561e-06, -4.39527781e-07,
          1.08799823e-05, -8.85438931e-06, 2.46867057e-06,
          1.14080713e-05, -3.98497559e-06, -3.31138995e-06,
          5.47084937e-06 ]
      - [ 0., 0., 0., 0., 0., 0., 0., 0., 0., 0., 0., 0., 0., 0., 0., 0.,
          0., 0., 0., 0., 0., 0., 0., 0., 0., 0., 0., 0., 0., 0., 0., 0.,
          0., 0., 0., 0., 0., 0., 0., 0., 0., 0., 0., 0., 0., 0., 0., 0.,
          -3.35690747e-05, 1.49708012e-05, 1.40859047e-05,
          -4.78617294e-05, 1.29496875e-05, -1.04646551e-05,
          -1.66301525e-05, 4.34963977e-06, -3.28281349e-05,
          -1.99478791e-06, 7.48485263e-06, -2.57522188e-05,
          -4.17074773e-07, -1.29683067e-05, -2.48685064e-05,
          -5.14162048e-06 ]
      - [ 0., 0., 0., 0., 0., 0., 0., 0., 0., 0., 0., 0., 0., 0., 0., 0.,
          0., 0., 0., 0., 0., 0., 0., 0., 0., 0., 0., 0., 0., 0., 0., 0.,
          0., 0., 0., 0., 0., 0., 0., 0., 0., 0., 0., 0., 0., 0., 0., 0.,
          -1.43154166e-05, -1.91220806e-06, 3.80132337e-06,
          -7.14327598e-06, 1.72676846e-05, -6.28917678e-06,
          -5.58770398e-06, -6.36522259e-07, 1.15142279e-06,
          4.26351426e-06, -6.84201177e-06, -4.55390955e-06,
          6.43946396e-06, -2.97118709e-06, 2.35677021e-06,
          5.12876522e-06 ]
      - [ 0., 0., 0., 0., 0., 0., 0., 0., 0., 0., 0., 0., 0., 0., 0., 0.,
          0., 0., 0., 0., 0., 0., 0., 0., 0., 0., 0., 0., 0., 0., 0., 0.,
          0., 0., 0., 0., 0., 0., 0., 0., 0., 0., 0., 0., 0., 0., 0., 0.,
          -1.96991950e-05, 1.20438494e-06, 1.26854084e-05,
          -1.37806001e-06, 1.50768401e-05, -8.10320034e-06,
          -8.72751571e-06, -2.57705415e-06, -8.12591679e-06,
          1.13392734e-05, -1.83735176e-06, -1.82011336e-05,
          2.59008375e-05, -5.04906325e-07, -5.25095675e-06,
          -2.68586496e-06 ]
      - [ 0., 0., 0., 0., 0., 0., 0., 0., 0., 0., 0., 0., 0., 0., 0., 0.,
          0., 0., 0., 0., 0., 0., 0., 0., 0., 0., 0., 0., 0., 0., 0., 0.,
          0., 0., 0., 0., 0., 0., 0., 0., 0., 0., 0., 0., 0., 0., 0., 0.,
          6.22672269e-06, -6.72880049e-07, 6.44087731e-06,
          -8.45189334e-06, 1.89614857e-05, -2.49055629e-05,
          -1.87590867e-05, 3.44443197e-06, -2.86079262e-06,
          1.09833209e-05, 2.67212408e-06, 4.22062067e-06,
          -4.70398027e-06, -1.47694018e-05, -9.46790533e-06,
          -1.12887328e-05 ]
      - [ 0., 0., 0., 0., 0., 0., 0., 0., 0., 0., 0., 0., 0., 0., 0., 0.,
          0., 0., 0., 0., 0., 0., 0., 0., 0., 0., 0., 0., 0., 0., 0., 0.,
          0., 0., 0., 0., 0., 0., 0., 0., 0., 0., 0., 0., 0., 0., 0., 0.,
          -2.81865287e-05, 1.62827491e-05, 2.46770060e-06,
          -5.26777194e-06, 1.47900482e-05, -5.37700589e-06,
          -3.20999584e-06, 1.66604502e-06, -7.42383372e-06,
          1.34622614e-05, -6.95714675e-07, 1.05443178e-06,
          -1.15226785e-05, 7.83403175e-06, 1.94794438e-06,
          3.97770873e-06 ]
      - [ 0., 0., 0., 0., 0., 0., 0., 0., 0., 0., 0., 0., 0., 0., 0., 0.,
          0., 0., 0., 0., 0., 0., 0., 0., 0., 0., 0., 0., 0., 0., 0., 0.,
          0., 0., 0., 0., 0., 0., 0., 0., 0., 0., 0., 0., 0., 0., 0., 0.,
          -1.21088306e-05, 7.46915020e-07, -1.77690731e-06,
          -4.18569061e-06, 8.75493970e-06, -1.27513147e-06,
          -2.39563110e-06, -1.80752284e-06, -8.65723177e-06,
          4.27139639e-06, -1.44072192e-06, -7.89146725e-07,
          -2.24085170e-06, 9.63273465e-07, 9.04407841e-07,
          9.63201273e-07 ]
      - [ 0., 0., 0., 0., 0., 0., 0., 0., 0., 0., 0., 0., 0., 0., 0., 0.,
          0., 0., 0., 0., 0., 0., 0., 0., 0., 0., 0., 0., 0., 0., 0., 0.,
          0., 0., 0., 0., 0., 0., 0., 0., 0., 0., 0., 0., 0., 0., 0., 0.,
          -2.44060334e-06, -1.34661150e-05, -3.97703808e-08,
          2.24429709e-06, 1.11115878e-05, 1.26281429e-06,
          -6.07778202e-06, -9.31837440e-06, -1.32830137e-05,
          9.50195226e-06, -9.94051106e-07, -3.35482105e-06,
          1.39501287e-06, 3.12515158e-06, -5.02397324e-06,
          -3.45088984e-06 ]
      - [ 0., 0., 0., 0., 0., 0., 0., 0., 0., 0., 0., 0., 0., 0., 0., 0.,
          0., 0., 0., 0., 0., 0., 0., 0., 0., 0., 0., 0., 0., 0., 0., 0.,
          0., 0., 0., 0., 0., 0., 0., 0., 0., 0., 0., 0., 0., 0., 0., 0.,
          -3.38776090e-06, -1.20792538e-05, 1.33453682e-06,
          1.37275970e-06, 1.20046361e-05, 1.96928318e-06,
          -7.12005158e-06, -1.03685579e-05, -9.43679424e-06,
          6.77106800e-06, 3.54709755e-07, 5.20696055e-08, 2.63932884e-06,
          3.18460980e-06, -5.15727743e-06, -2.69978932e-06 ]
      - [ 0., 0., 0., 0., 0., 0., 0., 0., 0., 0., 0., 0., 0., 0., 0., 0.,
          0., 0., 0., 0., 0., 0., 0., 0., 0., 0., 0., 0., 0., 0., 0., 0.,
          0., 0., 0., 0., 0., 0., 0., 0., 0., 0., 0., 0., 0., 0., 0., 0.,
          -5.75548620e-06, -1.78148348e-05, -9.07733522e-07,
          -2.36852338e-05, 4.08317283e-05, 5.62924970e-06,
          -2.43094946e-05, -2.03971358e-05, -4.13365797e-06,
          1.26333334e-05, -2.52040832e-06, 1.50977776e-05,
          -3.55743578e-05, 3.58670077e-05, -2.64568189e-05,
          -4.52541417e-06 ]
      - [ 0., 0., 0., 0., 0., 0., 0., 0., 0., 0., 0., 0., 0., 0., 0., 0.,
          0., 0., 0., 0., 0., 0., 0., 0., 0., 0., 0., 0., 0., 0., 0., 0.,
          0., 0., 0., 0., 0., 0., 0., 0., 0., 0., 0., 0., 0., 0., 0., 0.,
          2.58356408e-06, -1.00936077e-05, -1.03900265e-06,
          5.27328621e-06, 1.52453531e-05, 4.17147339e-06,
